ID,0,1,2,3,4,5,6,7,8,9,10,11,12,13,14,15,16,17,18,19,20,21,22,23,24,25,26,27,28,29,30,31,32,33,34,35,36,37,38,39,40,41,42,43,44,45,46,47,48,49,50,51,52,53,54,55,56,57,58,59,60,61,62,63,64,65,66,67,68,69,70,71,72,73,74,75,76,77,78,79,80,81,82,83,84,85,86,87,88,89,90,91,92,93,94,95,96,97,98,99,100,101,102,103,104,105,106,107,108,109,110,111,112,113,114,115,116,117,118,119,120,121,122,123,124,125,126,127,128,129,130,131,132,133,134,135,136,137,138,139,140,141,142,143,144,145,146,147,148,149,150,151,152,153,154,155,156,157,158,159,160,161,162,163,164,165,166,167,168,169,170,171,172,173,174,175,176,177,178,179,180,181,182,183,184,185,186,187,188,189,190,191,192,193,194,195,196,197,198,199,200,201,202,203,204,205,206,207,208,209,210,211,212,213,214,215,216,217,218,219,220,221,222,223,224,225,226,227,228,229,230,231,232,233,234,235,236,237,238,239,240,241,242,243,244,245,246,247,248,249,250,251,252,253,254,255,256,257,258,259,260,261,262,263,264,265,266,267,268,269,270,271,272,273,274,275,276,277,278,279,280,281,282,283,284,285,286,287,288,289,290,291,292,293,294,295,296,297,298,299,300,301,302,303,304,305,306,307,308,309,310,311,312,313,314,315,316,317,318,319,320,321,322,323,324,325,326,327,328,329,330,331,332,333,334,335,336,337,338,339,340,341,342,343,344,345,346,347,348,349,350,351,352,353,354,355,356,357,358,359,360,361,362,363,364,365,366,367,368,369,370,371,372,373,374,375,376,377,378,379,380,381,382,383,384,385,386,387,388,389,390,391,392,393,394,395,396,397,398,399,400,401,402,403,404,405,406,407,408,409,410,411,412,413,414,415,416,417,418,419,420,421,422,423,424,425,426,427,428,429,430,431,432,433,434,435,436,437,438,439,440,441,442,443,444,445,446,447,448,449,450,451,452,453,454,455,456,457,458,459,460,461,462,463,464,465,466,467,468,469,470,471,472,473,474,475,476,477,478,479,480,481,482,483,484,485,486,487,488,489,490,491,492,493,494,495,496,497,498,499,500,501,502,503,504,505,506,507,508,509,510,511,512,513,514,515,516,517,518,519,520,521,522,523,524,525,526,527,528,529,530,531,532,533,534,535,536,537,538,539,540,541,542,543,544,545,546,547,548,549,550,551,552,553,554,555,556,557,558,559,560,561,562,563,564,565,566,567,568,569,570,571,572,573,574,575,576,577,578,579,580,581,582,583,584,585,586,587,588,589,590,591,592,593,594,595,596,597,598,599,600,601,602,603,604,605,606,607,608,609,610,611,612,613,614,615,616,617,618,619,620,621,622,623,624,625,626,627,628,629,630,631,632,633,634,635,636,637,638,639,640,641,642,643,644,645,646,647,648,649,650,651,652,653,654,655,656,657,658,659,660,661,662,663,664,665,666,667,668,669,670,671,672,673,674,675,676,677,678,679,680,681,682,683,684,685,686,687,688,689,690,691,692,693,694,695,696,697,698,699,700,701,702,703,704,705,706,707,708,709,710,711,712,713,714,715,716,717,718,719,720,721,722,723,724,725,726,727,728,729,730,731,732,733,734,735,736,737,738,739,740,741,742,743,744,745,746,747,748,749,750,751,752,753,754,755,756,757,758,759,760,761,762,763,764,765,766,767,768,769,770,771,772,773,774,775,776,777,778,779,780,781,782,783,784,785,786,787,788,789,790,791,792,793,794,795,796,797,798,799,800,801,802,803,804,805,806,807,808,809,810,811,812,813,814,815,816,817,818,819,820,821,822,823,824,825,826,827,828,829,830,831,832,833,834,835,836,837,838,839,840,841,842,843,844,845,846,847,848,849,850,851,852,853,854,855,856,857,858,859,860,861,862,863,864,865,866,867,868,869,870,871,872,873,874,875,876,877,878,879,880,881,882,883,884,885,886,887,888,889,890,891,892,893,894,895,896,897,898,899,900,901,902,903,904,905,906,907,908,909,910,911,912,913,914,915,916,917,918,919,920,921,922,923,924,925,926,927,928,929,930,931,932,933,934,935,936,937,938,939,940,941,942,943,944,945,946,947,948,949,950,951,952,953,954,955,956,957,958,959,960,961,962,963,964,965,966,967,968,969,970,971,972,973,974,975,976,977,978,979,980,981,982,983,984,985,986,987,988,989,990,991,992,993,994,995,996,997,998,999,1000,1001,1002,1003,1004,1005,1006,1007,1008,1009,1010,1011,1012,1013,1014,1015,1016,1017,1018,1019,1020,1021,1022,1023
BGL1,0.014889557,0.0129516,-0.000538877,-0.004048172,-0.048022144,-0.007540183,-0.005676578,0.004518178,0.007218534,0.00610054,0.007722409,-0.019032046,0.052000593,0.016402962,0.009607317,0.005754139,0.002975031,-0.012281463,-0.000370866,0.019552046,0.039088555,-0.001558658,0.5459985,-0.005462902,-0.017980654,0.015027726,0.03681004,0.03499841,0.011268731,0.036596704,-0.004831377,0.15815058,-0.007755452,0.051518455,-0.005893562,0.021575011,-0.051012494,0.010180203,0.028459374,0.015018003,0.008190666,-0.013013748,0.008111079,0.059719104,-0.000280837,-0.006260239,-0.000330876,0.010358531,-0.03012262,0.041247077,0.023014706,0.04376154,0.015587474,-0.02885433,-0.014961758,0.008832921,-0.020112166,-0.001883443,0.023656696,-0.012339326,0.017507482,0.067220576,-0.028895736,0.008014371,-0.0567366,-0.016214313,0.045747485,0.021122064,0.08799204,0.08205048,-0.02414624,-0.01884952,-0.28207046,-0.026911844,0.035098962,0.026026696,0.012341002,-0.022309158,-0.010764687,0.17094997,0.000489699,0.061464243,-0.03328095,0.01927367,-0.028577223,-0.000424526,-0.0319522,-0.03640512,0.044473365,-0.01724643,-0.005167034,-0.019754587,-0.045801405,0.02657755,-0.020062266,-0.001948332,0.022273242,0.07663788,0.003839943,8.83E-05,-0.021344258,0.023619967,0.055981148,-0.04820897,-0.024128342,-0.01791061,-0.012831079,0.000617313,0.055561498,-0.033380017,-0.013749915,-0.01194587,-0.027198764,-0.005540424,0.027537046,-0.004577113,-0.07575888,0.01791869,0.018874161,0.029212253,0.03836332,-0.024487345,0.01805296,0.07143609,-0.011925487,-0.025525797,0.024061294,0.04305072,-0.007060859,0.00490357,0.035570208,0.028076146,0.027170073,0.046478424,0.017250702,-0.070772246,-0.013380747,0.017927742,0.030855257,-0.003968759,0.03861259,-0.056323998,0.03383223,0.03548725,-0.123950966,0.015866244,-0.007781103,-0.00876085,0.34597725,-0.039010536,-0.021158265,-0.003793512,0.008138333,-0.003917011,-0.010625611,0.026432768,-0.012610045,-0.027325964,-0.05368594,-0.010362932,0.009503573,-0.006197332,0.01695707,0.022002045,0.048413996,0.011429005,0.05601508,0.07217707,-0.020840898,0.002634286,0.009580185,-0.06317887,0.011520892,0.043012995,0.016895587,0.003853594,-0.006521298,-0.033226993,0.0681248,-0.07239777,0.01351014,-0.012353463,-0.010070637,-0.06770336,-0.053295117,0.000891476,0.013102208,0.020225136,-0.23551862,0.014638044,0.015675351,-0.022387793,0.007734121,-0.019919062,0.010315324,-0.030525802,-0.008728435,0.041765034,-0.018466733,-0.050774664,0.003381662,0.0336244,-0.008880449,-0.01795585,0.00376838,0.04488677,0.00919768,0.030838018,0.07978347,-0.018022444,-0.17841925,-0.030525936,-0.026558936,-0.035217203,0.010718791,-0.022258658,-0.000197475,-0.015064933,-0.029311925,-0.023480058,-0.02363722,-0.007825851,0.05512677,-0.002269258,1.17E-05,0.016315512,0.008528765,0.04986076,0.005265976,-0.033543803,0.001671513,-0.17323308,-0.03858788,0.022666775,-0.011811551,-0.003574518,-0.014070019,0.019501347,-0.02086682,0.07494319,-0.038671758,-0.081988975,-0.07011621,0.091834016,-0.014845691,-0.005019156,-0.039261345,0.016564883,0.083206385,-0.024251562,0.006302219,0.062178582,0.010470026,0.007827689,-0.048568703,-0.02220663,0.021460483,-0.004871468,-0.000659824,0.002488464,0.013345325,-0.008241559,-0.004117236,-0.021556411,-0.07301352,0.02762881,-0.052585773,0.012924013,0.03073599,0.011572933,0.027981125,-0.03594237,-0.013754178,-0.005371778,0.009437946,-0.006761751,0.041975264,0.11098119,0.045005474,-0.008955338,0.009952969,-0.000712326,-0.001477906,-0.005966867,0.000345912,0.070839375,0.005723278,0.006806533,-0.03955727,0.033786632,-0.011749947,-0.02269367,0.02939252,-0.03615802,0.6438233,-0.019653745,0.027920635,-0.062464133,-0.025081838,0.042668745,-0.007464948,-0.012921404,-0.003063687,0.00788911,0.000294607,-0.006100564,0.0103876,-0.021523528,0.041017096,-0.03898336,-0.01823577,0.000634918,0.003788414,-0.01941947,0.026864106,-0.007497953,0.014282781,0.025484854,0.004283896,0.012007491,0.001308791,0.043492503,-0.04877193,-0.024015933,-0.03368078,0.002070241,-0.008323807,-0.006235628,0.004835218,0.049120437,-0.03800126,0.059078448,-0.012461465,0.04596828,0.020509742,0.3183895,0.026912745,0.014980092,-0.000568737,-0.014570975,-0.019145995,-0.010579778,0.037944183,-0.004171039,0.02050772,0.08256468,0.037244666,-0.014292045,0.042723652,0.04672927,-0.018061794,0.03558901,-0.051389612,0.03547201,0.05824013,-0.013226189,0.37596005,-0.060700666,0.05969378,0.006295958,-0.009039457,0.02121755,-0.030572163,0.018172357,0.027643867,-0.08580015,-0.018943755,-0.04122098,-0.001153132,-0.015967615,-0.016468095,-0.04616673,-0.00769499,0.02563445,0.011775379,-0.019013345,0.030660527,-0.040680878,0.02119783,-0.008077696,-0.007588675,-0.004325763,0.020296205,-0.002978043,0.012668523,-0.018604856,0.029259019,-0.026528541,0.029997332,0.008131031,-0.005663735,-0.025137646,0.009540378,-0.04751774,0.014105789,0.03648354,-0.019170212,-0.05648153,-0.024293872,0.005140569,-0.003962799,-0.007602292,0.017147265,0.021333711,0.008033191,-0.005244472,0.043840863,0.031729948,0.014929151,-0.045619555,0.01747267,1.26E-05,0.014245788,0.03297491,0.039782513,0.05601414,-0.01994529,-0.019049153,-0.027491426,0.01838913,0.027817728,-0.034877766,0.000588286,0.002412663,-0.003742894,-0.00954076,-0.030028816,-0.051744744,0.03027861,-0.000485119,-0.3142897,-0.018637652,-0.000565611,-0.06679305,-0.000789721,-0.009086971,0.0415577,0.005866773,-0.009670482,0.005672539,-0.03226338,0.054758385,0.00195951,0.003683138,0.003474323,-0.010447308,0.008350867,0.027220577,0.028452877,-0.003217646,0.030079564,-0.016294686,0.037407734,0.001733259,-0.021517467,0.014341651,-0.002846996,0.018372187,-0.019669795,-0.004381151,0.033263534,0.004170568,0.02392377,0.009974998,-0.032989714,0.008821035,0.018613834,-0.001503328,0.10848167,0.004607528,-0.001443371,-0.034644153,-0.001937258,0.001829782,-0.02816538,-0.016576927,-0.048169296,0.021627905,0.034628097,0.006640195,-0.029669274,0.032996554,0.033331692,-0.012471847,0.046411313,-0.008420779,-0.023096673,-0.019058986,-0.012158991,-0.015507414,-0.012157412,-0.002877791,-0.042477835,-0.007269516,-0.046236634,-0.006995366,-0.060731437,-0.031145737,0.019282393,0.000191497,-0.0369994,-0.025750821,0.029456412,-0.074606165,-0.008255478,-0.0134658,-0.021454437,-0.003337824,0.000589046,0.019643042,0.07687135,-0.020425996,-0.002738416,0.057596084,0.012171985,0.058034122,0.002533238,0.025444387,-0.028785001,0.043852482,-0.028230906,-0.15983999,0.007173895,-0.0745805,-0.002256556,0.002753642,0.003241123,0.05722019,0.083598584,-0.030747926,0.03181192,-0.020651923,0.05494681,0.022464637,-0.071141966,0.008236625,-0.043898955,-0.039490387,0.06707375,-0.024382832,-0.06162434,0.013125026,-0.024019908,0.012289969,-0.031748015,0.011850264,-0.022136824,-0.005302227,0.043013357,0.038289562,0.049345702,0.011107149,-0.00057908,-0.007761309,0.01787565,-0.014351578,-0.021026097,-0.006833846,0.034673497,0.008080965,-0.032005195,0.00195293,-0.00304458,0.023351708,-0.016970204,-0.03844035,0.026514946,0.003968635,0.011751873,0.065567106,0.01535721,-0.012368117,0.002624793,-0.04513885,-0.002945335,0.023345398,-0.020618372,-0.055867966,-0.04118929,0.03661982,-0.045452718,-0.00991809,-0.044807732,0.0535994,-0.027583778,0.003981216,-0.044488046,-0.026925664,0.03650002,-0.28299424,-0.057527788,0.079539165,0.030395303,-0.056626327,0.014020636,0.030784026,0.052065205,-0.014063901,0.004597756,-0.011555551,-0.011025354,-0.02766148,0.024673568,-0.004347539,-0.03745411,0.002747968,0.009771077,-0.028679226,0.034631953,-0.033961896,-0.054180603,0.03314217,-0.033406485,-0.004372282,-0.03594484,0.006575513,-0.023157656,-0.019845542,-0.018598111,0.013262945,-0.022738166,-0.002518752,0.4006094,-0.029068742,-0.028603887,-0.035654318,0.01834883,-0.046271943,-0.023755616,-0.04839811,0.057976604,0.047464788,-0.007947204,-0.00260963,0.028071431,0.00304639,0.04574873,0.038549628,-0.006897268,-0.034827914,0.033427406,-0.024399055,0.0372219,0.008403327,-0.015667228,-0.014476006,0.08402677,0.006616932,-0.002733831,0.001546639,0.031794015,0.052850664,0.00314598,-0.0169529,-0.013407443,0.02425439,0.0573712,0.12576966,0.00698297,-0.003491163,-0.030879274,-0.06469755,0.025075834,0.00625451,-0.024773542,-0.03911201,-0.01567348,-0.022039732,-0.044006117,9.76E-05,-0.014579104,0.019907286,-0.019085957,0.02499747,0.033645477,-0.019209092,0.013726136,0.050183978,0.024988731,0.013618327,0.017460577,-0.015443789,-0.010581173,0.26409236,-0.013968783,-0.06256586,0.008288389,-0.020067928,-0.007614422,-0.002889245,-0.014095997,0.057372335,0.06029696,0.000775202,0.021157077,0.007440631,-0.023534061,0.012093227,-0.07397327,0.036669806,0.01727071,-0.05632627,-0.004946057,-0.042898085,-0.02941864,-0.031154934,0.005913163,-0.006063146,-0.064787544,-0.019657845,-0.017759923,0.04083556,-0.000335801,0.03107374,-0.006340908,0.019127807,0.019331986,0.05195058,-0.016212786,0.024921346,0.07166325,0.0205332,0.006884696,-0.026399285,-0.018249296,0.004285573,-0.026365047,-0.015237248,-0.017866764,0.007783698,-0.023614142,0.027828742,-0.01646555,0.010102393,-0.007030704,-0.000845734,0.017648743,0.004663079,-0.0346205,0.019488607,0.001740436,-0.002541826,-0.015356296,-0.005918845,-0.057598412,0.000897248,0.066950776,-0.059924744,-0.001086897,-0.004180665,0.03282954,0.017851178,0.002420651,0.000903831,-0.011618912,0.03328183,0.00790675,0.01850305,0.01814381,0.08440626,-0.025048703,-0.041172016,0.013271535,0.011749083,-0.056495965,0.000877347,-0.029263586,0.016939627,0.02485437,0.008966615,-0.058157075,0.043715306,-0.020306343,-0.0146316,-0.027276443,0.039118182,-0.04266866,0.029258138,0.003310004,-0.19702616,-0.025296532,0.012258663,0.04973163,0.010525829,0.020419348,-0.51125836,0.009286011,0.021064084,-0.06528506,0.04438325,6.25E-05,0.001024548,0.040180575,-0.15952407,0.046112064,0.040470272,0.051480457,-0.006847681,0.022457896,-0.07172469,0.012121827,-0.047351215,0.017529272,-0.011906578,-0.013687494,-0.016309142,-0.003121071,0.04177716,0.009157971,-0.017987052,-0.001848943,0.011830855,-0.035080895,0.021506798,0.007041556,0.016988305,-0.06704215,-0.068122625,0.06905036,-0.022100642,0.037312947,0.068337545,-0.041066613,0.001970519,-0.012472153,-0.047120754,-0.020539748,0.018432848,0.008125379,0.017694967,0.05479838,0.007066066,-0.007385298,-0.057523273,0.005028775,-0.091423236,-0.02108753,-0.031483997,-0.007989064,-0.030271687,-0.025812268,-0.015652426,-0.011265452,-0.011537106,-0.011516891,-0.008446297,0.002444345,-0.050766464,0.032283604,0.05947358,0.03364829,-0.04175265,-0.037934754,-0.033230867,-0.013451827,-0.028284023,0.04261403,0.012865582,-0.00809386,6.61E-05,0.041498054,-0.005511651,0.002814801,0.000183784,0.03229998,-0.02550011,0.023741996,0.01415637,0.024468808,0.033013556,0.036788557,-0.044552095,0.023610828,0.07412527,-0.022940483,0.022146702,0.001710358,0.042860962,0.006007329,-0.039694827,0.029959934,-0.005355301,0.002281778,-0.013250217,-0.000386166,0.004281534,0.002139623,0.004523983,0.001833705,0.018298965,0.007418105,0.01563601,0.021346167,0.02853751,0.061425164,-0.009905631,0.036729433,-0.017657138,0.0063086,-0.006733017,0.005453792,-0.048696555,-0.31358525,-0.003221233,-0.007667892,-0.014860509,-0.029398877,-0.007327234,-0.008567867,-0.018677149,0.007587303,-0.007808383,0.009454457,0.10145011,-0.015328032,-0.038334057,-0.041414034,0.035043698,-0.008755068,0.06226494,-0.009060217,-0.020764945,0.006372071,-0.01251279,-0.012233246,-4.39E-06,0.06978371,0.0332544,0.025645882,-0.013133203,-0.033641953,-0.031125765,0.014360036,0.002245585,-0.037086032,-0.0048312,0.010413778,0.021293975,-0.01990341,0.07675923,0.054557122,-0.007637743,-0.031038055,0.022242421,-0.02913738,-0.041792378,0.01779687,-0.007839168,0.019714823,-0.044346843,0.07019216,0.000705041,-0.000368787,-0.15451163,-0.049375996,0.020497777,0.019541495,-0.006386505,0.005716257,-0.007078411,-0.00634578,-0.005588913,-0.000206869,0.034372706,0.020566834,0.07528321,-0.37306648,-0.046570946,0.044587024,-0.000938091,0.0030034,0.004516531,-0.03705163,-0.017626833,-0.017685648,-0.003509687,0.024152981,0.013194055,0.010279291,0.050688993,-0.024894789,0.05266785,0.008198881,0.07908023,-0.058487702,-0.039331608,-0.032865528,-0.049882725,-0.041726235,0.003131977,-0.039799232,-0.015148611,-0.002340905,-0.032643046,-0.008175022,-0.009629223,-0.06993011,-0.023191303,-0.009398364,0.039023325,0.038133103,0.02761438,-0.04998751,-0.023260359,0.006601883,0.006738794,-0.024560086,0.010840086,-0.018357184,0.002828649,-0.017569909,-0.008576432,0.037131917,-0.01493467,0.03028038,-0.033433836,-0.013842355,-0.026492849,0.006721766,-0.039670236,0.037588235,-0.047200006,-0.028336095,0.01211517
BGL2,0.012510621,0.003847894,0.024526244,-0.01746527,-0.012198802,-0.026485134,-0.06550042,0.00787584,0.010382341,-0.014020371,0.038670465,-0.05210778,0.05262934,-0.000400101,0.00679725,0.073464006,0.002467545,-0.004120104,-0.005969259,-0.010131203,0.017726777,0.036280096,0.5294556,0.02915885,-0.026219092,-0.024026928,-0.004801946,0.011294732,0.012967661,0.04270961,-0.031576004,0.1784628,-0.007670469,0.03093107,-0.005881677,0.055942066,-0.031327303,0.024451256,0.046719816,0.044190798,-0.034744993,-0.018224861,-0.057250332,0.06622963,-0.009919762,0.016771032,-0.016166458,-0.04021173,0.04968883,0.04627811,0.035663426,0.06460371,0.03521408,-0.033806864,-0.014519781,-0.016918607,0.008827672,-0.00268028,-0.002290315,-0.03841218,-0.06306755,0.08770192,-0.056196883,0.008076865,-0.061965767,-0.012656296,0.06629936,0.01949051,0.04231453,0.015694294,0.009228071,0.02179784,-0.2792246,-0.012083047,0.067467354,0.06541724,-0.036539335,-0.017714478,-0.03665218,0.14909472,-0.038713325,0.0708766,0.023302816,-0.002660872,0.002415496,-0.021403499,-0.004989415,-0.012101965,0.01856049,-0.006919613,0.012764973,0.0505262,-0.029828772,0.058873523,0.00356553,-0.004568534,-0.010673744,0.029084982,-0.005078308,-0.00137381,-0.023592386,0.09159105,0.06487678,0.003798949,-0.020928532,-0.054428607,-0.047042172,-0.05242686,0.08753808,-0.008921301,0.006399955,-0.005595136,-0.007992468,0.042082697,0.03795322,-0.06059102,-0.036826827,-0.019208366,0.030089758,-0.013459774,0.033660542,0.007443523,0.024375388,0.045134626,-0.06313432,-0.010143052,0.04260682,0.016020447,-0.008858723,-0.018874697,0.026534975,-0.004121047,-0.008528388,-0.016246315,0.012974234,-0.023444634,-0.006401915,0.03476134,0.020963466,-0.004570678,0.03393931,-0.03721394,0.03627523,0.02746491,-0.16582617,-0.039903212,0.012206082,0.024839228,0.27845326,-0.009319811,-0.019503819,-0.04916274,-0.016369805,0.002421725,-0.049023222,-0.05378299,-3.53E-05,-0.017684923,-0.006274154,0.04069435,0.018112993,-0.035038993,0.02884624,0.020548752,0.09837196,0.019286294,0.001456746,0.01167208,0.018533474,-0.011656544,0.03700192,-0.06533991,0.006567715,0.028830927,0.03929323,-0.01478622,-0.015935853,-0.03977203,0.08129576,-0.030199734,0.04652659,-0.004545831,0.034739222,-0.013115609,-0.06432332,-0.021256763,0.021521442,-0.004565885,-0.28160107,-0.041435175,0.0507635,0.03325372,0.020789715,-0.030913189,0.036429867,0.022218145,-0.012190867,0.035689943,-0.034316324,-0.048701774,-0.024092378,0.013324833,-0.033277318,0.015983637,0.006295106,0.06040742,0.009768446,0.08044215,0.046521388,0.001941234,-0.17774494,-0.001354712,-0.016959732,0.019782597,0.01409232,-0.053357147,-0.054061264,-0.010809263,0.007882902,-0.06200627,-0.016552731,-0.015528272,0.01622028,0.028876642,-0.006961562,-0.024781413,0.006373373,0.09016386,0.027745405,-0.039677855,0.046537902,-0.17142224,0.017852198,-0.004080869,-0.018253747,-0.018669005,0.014396519,0.034822624,-0.047610816,0.04827335,-0.021942686,-0.045701068,-0.012726726,0.013766008,-0.040939238,0.001142621,-0.002275487,0.005005024,-0.033584166,0.016478881,0.018742248,0.060779225,-0.012634817,0.02602202,-0.011026296,-0.032687705,0.016584363,-0.005308479,0.002551022,0.006229042,0.02465899,0.033287607,0.002054203,0.02288454,-0.062206738,0.008651119,-0.06433472,0.010667906,0.022080813,0.029200785,0.053743534,-0.016304426,-0.011861743,-0.005611939,-0.007526273,0.020650031,0.022874841,0.059333667,0.031924576,-0.01275082,-0.009340474,-0.023846572,-0.001283785,-0.003951222,0.046524785,0.015071926,0.022891998,6.28E-05,-0.02016316,0.042406853,0.008879007,-0.043823887,0.020284146,-0.023894504,0.6968288,-0.010027025,0.010841077,-0.026809892,0.02446078,0.033980075,0.015997518,0.017107563,0.009482825,0.002214723,-0.047728598,-0.021311058,0.010861098,-0.07277182,0.027524026,-0.036204237,0.016103504,0.028381677,0.00209183,-0.015400607,0.002149612,0.016247835,0.053230457,-0.00643119,-0.012951564,0.0494393,0.01861487,0.066301584,-0.063843936,0.015615254,-0.05969508,0.012885967,-0.025374038,-0.046851452,-0.012354159,0.005638194,-0.032188583,-0.012073021,0.014061456,-0.003242031,-0.021756224,0.35002434,0.029170563,0.01006882,-6.76E-05,0.003371241,-0.009788141,-0.014696287,0.020365583,-0.047809448,-0.007182641,0.069505505,0.005304575,0.05266962,0.0413485,0.042972654,0.001765442,0.03699259,-0.034430828,0.089753166,0.044168066,-0.018714858,0.3516548,-0.034493446,0.06350364,0.010556486,-0.03000185,0.034867845,-0.005832103,0.011237606,0.045453764,-0.06399943,-0.011723003,0.001003556,-0.019429633,0.007800637,0.020596612,-0.058411177,0.013205924,0.022177525,0.00240183,-0.007462726,0.030893443,-0.032599814,0.03889642,-0.023290642,-0.09138236,0.03472102,-0.002125607,-0.031027855,-0.003400078,-0.029556656,0.023407636,0.012554387,0.024316153,-0.008578094,0.015096408,-0.000491873,0.011324964,-0.034351483,0.019222053,0.024506493,-0.050798364,-0.017248416,0.021186927,-0.028171668,-0.006841574,0.007220177,0.023311166,0.024888447,-0.0146969,-0.004715345,0.001681325,-0.002360454,0.00671031,-0.055875365,0.015372101,-6.29E-05,-0.0379283,0.004357641,-0.05797993,0.009793273,-0.011115318,0.011225378,-0.011948158,0.06472202,0.019550692,-0.017444186,0.032764688,-0.042798195,0.034310006,0.023225654,0.00744808,-0.031144084,0.008306848,0.004753739,-0.2283273,-0.030601338,-0.023338815,-0.07524092,0.010279447,0.006199807,-0.005482388,0.005106485,0.03361007,-0.016218701,0.005795917,0.05351835,0.034514427,0.003994832,0.06319055,-0.002712397,0.05847252,-0.008596675,0.009691576,-0.014571753,0.025172228,-0.00044985,0.02160356,-0.021170393,-0.002445611,-0.026437175,-0.037491,-0.013151877,-0.007390768,0.016825937,-0.011695499,0.075126566,0.04876782,0.04200383,0.000338322,0.010992685,0.045525506,0.019012468,0.03399973,0.042023163,-0.001841487,0.029674575,-0.016451519,-0.013060736,-0.087781474,-0.008199919,0.011008907,-0.043628324,0.056696247,-0.03308218,-0.06804201,0.008477943,0.055709127,0.01087391,0.03420621,0.023399161,-0.051788636,0.023758613,-0.019482685,0.014295432,0.039757036,0.006602747,-0.06428345,-0.003062223,-0.044356022,0.021327596,-0.013082711,-0.018578988,-0.011085485,0.000223671,-0.032424323,-0.026687851,0.032363754,-0.103633985,-0.008694512,-0.028125225,-0.009260034,0.007688221,-0.042798404,0.10271343,0.006113953,-0.000944193,-0.002067776,0.01827012,-0.019748911,0.07780579,-0.016366614,0.05728466,-0.07262141,0.012163414,-0.02643205,-0.07301896,-0.008034528,-0.050311245,-0.002549609,0.002962138,0.016898798,0.005272647,-0.048028134,0.003472904,0.009289237,-0.029333098,0.004999796,0.00246569,-0.038387034,0.020250505,-0.008081739,-0.036258265,0.04337873,-0.006302032,-0.008790713,0.035486605,0.006023193,-0.033946548,-0.002912312,0.04961176,0.063214555,0.002709254,0.08415197,0.009692385,0.021644179,-0.026528856,0.001736121,0.024641057,0.000333374,-0.022079922,-0.021806857,-0.028313281,0.052803166,0.009435901,-0.07817696,0.00274465,0.049387522,0.03681244,-0.017802414,-0.027551444,-0.013539841,-0.02542517,-0.07801431,0.051071286,0.026287725,0.018085409,-0.065859154,-0.037453048,-0.012372947,0.004110196,-0.000347811,-0.0463301,-0.08459346,0.04022405,-0.03083439,0.004123884,-0.043183386,-0.001437628,-0.023427457,-0.041644823,-0.013012618,-0.023172375,0.07931644,-0.32466486,-0.040052522,0.08135367,-0.000418856,-0.03174498,0.002463784,0.011308477,-0.005357744,0.015445076,-0.05637259,-0.02680091,-0.000681564,0.002067068,-0.039927166,-0.047686875,-0.017875826,-0.032296114,-0.018876975,-0.026420392,0.017126817,-0.04431646,-0.04729409,0.0399954,-0.076282755,0.006476857,-0.01980094,0.006645248,-0.044697136,-0.017155228,-0.064664066,-0.020934144,-0.026866103,-0.016010227,0.33811122,-0.006375075,-0.010998863,-0.051085137,0.015001056,-0.026505167,-0.041215975,-0.05957542,0.002572548,-0.002558703,-0.05510016,0.060565114,-0.00490903,0.004225414,0.04228597,-0.005463345,0.003876118,-0.004706597,0.005539686,-0.053519327,0.017748956,0.03035044,-0.04837668,0.001820849,0.009227198,-0.048698917,-0.05336201,-0.027416697,0.05005904,0.018872356,0.001631941,-0.021208148,-0.016109223,0.006691466,0.023046872,0.106614694,-0.03192508,0.020208545,-0.028453764,-0.020104226,-0.004514778,0.027536677,-0.04407426,-0.029346805,-0.024378208,-0.000353949,-0.012345893,-0.010883525,-0.019245436,0.008134405,-0.013059422,0.009984071,0.0157216,-0.042987872,0.029278498,0.04360528,0.040325277,0.029584821,-0.001761813,-0.01789412,-0.025150094,0.31901082,-0.008094291,-0.05925598,0.024108313,-0.007000963,0.003996313,-0.010934426,0.001887327,-0.01673445,0.045898147,0.008383432,0.008424584,-0.004758623,-0.026004957,0.003448655,-0.07843855,0.0352103,0.027244255,-0.017755229,0.02001456,-0.060613643,-0.00945812,-0.046752278,0.04838023,-0.007611778,-0.015908714,-0.030926714,-0.0028037,0.08450283,-0.010400571,0.011671227,0.029115688,-0.032321442,-0.02254278,0.021713514,-0.03495651,0.015138606,0.032196246,0.04697386,-0.000100297,-0.068671994,-0.01237796,0.001842108,-0.04721149,-0.002213239,-0.015488189,0.04920173,-0.03603718,-0.022888096,0.011822946,0.008290523,-0.007296866,-0.015999017,0.017001407,0.001056958,-0.036077812,0.02934787,-0.008560807,-0.055976015,-0.015299654,-0.027114093,-0.0715114,-0.038347933,0.020260435,-0.06405715,0.006460155,0.015461642,-0.022274457,-0.000184023,0.006083645,0.0098281,-0.030917697,0.008914926,0.031272728,-0.006860855,0.05761305,0.079622485,0.005558733,-0.025291977,0.02497474,-0.008907327,0.004773765,0.018132087,0.005478781,0.051555984,-0.006606808,0.015776576,0.011998652,0.017203262,-0.024791487,-0.020559574,-0.025586203,0.053282607,-0.030048657,0.012940803,0.006823623,-0.117089115,0.039414193,0.014772789,0.034139648,-0.036448788,-0.012863628,-0.24093534,0.02668589,-0.01906407,-0.045480974,0.06542071,-0.002038155,-0.04175733,0.029968742,-0.11185212,0.032029193,-0.013967055,0.061250634,-0.000938982,-0.011031978,-0.07278246,0.0465157,0.024451118,0.024891902,0.00498009,0.000871926,0.00472635,0.014979269,0.05890337,0.053649116,-0.023597293,0.025032239,-0.049298834,-0.018814381,0.020887744,0.007235472,0.024655245,-0.04160253,-0.016127016,0.075258166,-0.047526147,0.013345002,0.017525455,-0.003636707,0.022330018,-0.000154957,-0.014280665,0.03705921,0.006978971,0.00280978,0.046061777,0.04411281,-0.021645939,-0.042415433,-0.065277815,-0.005773713,-0.12040726,0.011660503,0.006839683,0.009825185,-0.012192029,-0.035799164,-0.00625312,-0.022163397,-0.04870951,0.011162327,-0.01179964,0.00614905,-0.015690703,0.032618877,0.008013088,0.037004463,-0.071014106,-0.025967166,0.011781747,0.026937863,-0.02775267,0.000403611,0.020212743,-0.002285472,-0.00018276,0.029157516,0.015488493,0.002781025,0.000852728,0.024189379,0.037195235,-0.010648301,-0.042845353,0.023966694,0.04165418,0.0255096,-0.030149553,0.01761665,0.039894853,-0.018788755,0.026248703,0.013444638,0.00172064,0.025402946,-0.023797667,-0.008787406,-0.02325058,-0.02449142,0.022433626,0.021140145,0.03179167,-0.00038661,-0.002762048,-0.031136163,-0.027766105,-0.014004886,0.004478158,-0.031973377,0.020707445,0.035965547,-0.02911138,0.049796674,0.005342093,0.006294413,-0.049765885,-0.033168674,0.024264418,-0.233992,0.019968547,-0.00601572,0.018887976,-0.04108694,0.002228269,-0.005793824,-0.00829949,0.014209428,0.003066713,-0.044153564,0.15052238,0.003897801,0.012359763,0.011858157,0.030226432,0.034095407,0.03455384,-0.025818214,0.039048534,0.022921527,0.046363417,-0.029678341,-0.025905645,0.06689586,-0.002597815,0.030175641,-0.014251335,-0.010846114,0.030775648,0.009660617,-0.033485074,-0.02509141,0.005147201,0.024761863,0.018464295,-0.023825087,0.05168235,0.03826421,-0.011874223,-0.027255515,0.02048231,0.005350847,0.009230699,0.00700077,-0.007844852,-0.011444615,-0.000505492,0.066725634,-0.027820041,0.008851962,-0.16596304,-0.012974589,-0.001781231,0.013407479,0.023132386,0.06352387,0.012575809,-0.03530778,0.00057781,-0.014280765,-0.006958726,0.00048737,0.029999979,-0.43114585,-0.028050125,0.016033765,0.00427784,0.00188272,-0.008117913,-0.043818466,-0.057176914,-0.019066501,-0.003226633,0.025656866,0.00501837,-0.000513596,0.022933336,-0.050608624,0.04637855,0.009493427,0.014853828,0.02860525,-0.028889848,-0.007903462,-0.07157464,-0.031851407,0.000627572,0.002117405,0.010411774,-0.002416424,-0.03756581,0.022861257,-0.020639535,-0.045772918,-0.007891697,0.007587577,0.00323298,0.032528535,0.024991812,-0.004837286,0.01353916,0.006907457,0.013035909,0.041676972,0.016390266,0.010990809,0.02468873,-0.020619957,-0.013219757,-0.016159588,0.036801863,-0.032628767,-0.03086647,0.029325532,-0.013342762,0.021757359,0.005325134,0.00894118,-0.050632045,-0.019000951,0.002091183
BGL3,0.012494941,0.003833904,0.024378913,-0.017410735,-0.01220086,-0.026598452,-0.06570115,0.007708399,0.010472048,-0.013636407,0.038472623,-0.052205388,0.05231502,0.000111964,0.006965682,0.07351468,0.002781387,-0.004373636,-0.006346429,-0.010365122,0.017921979,0.036176898,0.5295378,0.029334327,-0.026083345,-0.024331274,-0.00496535,0.011128331,0.013081934,0.042825516,-0.031596735,0.17846504,-0.007669814,0.031054566,-0.005877177,0.056299075,-0.031280726,0.02466633,0.046656486,0.04414573,-0.03490475,-0.018113472,-0.05763601,0.066224895,-0.010048754,0.01692138,-0.016343666,-0.0400099,0.04941582,0.046406448,0.035485428,0.06498264,0.035013195,-0.033792432,-0.01437417,-0.016337238,0.008962954,-0.002686138,-0.002441576,-0.038305238,-0.06291467,0.08797271,-0.05625318,0.008069032,-0.062024415,-0.012615631,0.06661354,0.019344373,0.042672757,0.015585344,0.009474876,0.021309115,-0.2791752,-0.0117803,0.06733072,0.0655067,-0.03657293,-0.01797688,-0.036956247,0.14901784,-0.038904928,0.07088662,0.023126854,-0.002361349,0.002158636,-0.0216864,-0.004815079,-0.011569166,0.018282615,-0.007270115,0.01232529,0.050492223,-0.030063162,0.058644064,0.003647527,-0.004370268,-0.010585922,0.028914342,-0.004798607,-0.001394508,-0.023843238,0.09169425,0.064732976,0.003735073,-0.020824792,-0.054170016,-0.04704181,-0.05222785,0.0877288,-0.009054087,0.006932406,-0.005077147,-0.007814511,0.042264305,0.038099505,-0.060450796,-0.03734566,-0.019312443,0.030431788,-0.013860201,0.033825554,0.007231831,0.023816464,0.045263004,-0.063319795,-0.01001031,0.04220046,0.016038215,-0.008504054,-0.019173399,0.026648438,-0.004279804,-0.008573677,-0.016377341,0.012804796,-0.023489825,-0.006351032,0.034911916,0.020693757,-0.004508568,0.034433704,-0.037439868,0.036160924,0.027471878,-0.16592355,-0.040081527,0.012275022,0.02486771,0.27871528,-0.009172298,-0.019427897,-0.04931625,-0.016659219,0.002638368,-0.049312145,-0.053966075,-0.000245593,-0.017862886,-0.006169123,0.04048892,0.018192902,-0.035506915,0.029239189,0.020211473,0.0984923,0.01931658,0.001660643,0.011735043,0.018386807,-0.011829861,0.036821615,-0.06568104,0.006437241,0.028698465,0.039229743,-0.014679709,-0.015732761,-0.039901294,0.0810574,-0.030145783,0.046530798,-0.004475838,0.034376737,-0.012767921,-0.06432241,-0.021459717,0.021636061,-0.004687283,-0.28134146,-0.04151404,0.05096821,0.033554193,0.020955209,-0.030807307,0.03671806,0.022037417,-0.012235086,0.03546587,-0.034508254,-0.048854023,-0.024339145,0.01341684,-0.03292995,0.016123516,0.006527178,0.06036649,0.009758437,0.0802127,0.046698067,0.002267602,-0.17780657,-0.001728669,-0.0172455,0.019636516,0.01419706,-0.052874714,-0.054287627,-0.010894359,0.007891529,-0.062228583,-0.016395703,-0.015642868,0.015987312,0.028924141,-0.007067874,-0.024344027,0.006619486,0.08996209,0.027585272,-0.039329562,0.04689099,-0.17143738,0.017785909,-0.004084456,-0.01848474,-0.018786535,0.014504624,0.034864403,-0.047815274,0.048151072,-0.022434574,-0.04571794,-0.012620807,0.013894776,-0.040841553,0.001132639,-0.002251225,0.004870032,-0.03398652,0.016352627,0.018673887,0.06072643,-0.01227598,0.025998756,-0.011015897,-0.033083603,0.016583992,-0.005342936,0.002350581,0.006343158,0.024811974,0.03311453,0.002299001,0.02295268,-0.06200075,0.008692043,-0.06428326,0.010410994,0.022363922,0.029410077,0.054160453,-0.016376842,-0.01158134,-0.00561163,-0.007246521,0.02033981,0.022927709,0.0591096,0.03208533,-0.012809987,-0.008984026,-0.023963047,-0.001273987,-0.004139289,0.046369318,0.014821089,0.022990929,0.000155729,-0.020152085,0.04234803,0.008637276,-0.043814324,0.020318763,-0.024073783,0.6966274,-0.010427289,0.011078695,-0.026530953,0.024613623,0.033844944,0.016186286,0.017187744,0.009474432,0.00217676,-0.04769338,-0.021049585,0.010948274,-0.07270608,0.027651535,-0.036260903,0.015953584,0.028188672,0.002409126,-0.015378485,0.002017805,0.015978282,0.053361695,-0.006246002,-0.012928192,0.04983969,0.018773396,0.06631833,-0.06373607,0.015793048,-0.059582293,0.012580157,-0.025194835,-0.0468897,-0.012085949,0.005674175,-0.032009926,-0.012286984,0.014145341,-0.003020159,-0.021796351,0.3498616,0.02880647,0.009823969,-6.30E-05,0.003484735,-0.009646163,-0.014574403,0.020171411,-0.0476532,-0.007262937,0.06965476,0.005660249,0.052690007,0.041504983,0.04332253,0.001937802,0.036785483,-0.03411526,0.08950588,0.044001244,-0.018699046,0.3517735,-0.03454804,0.06365588,0.010677718,-0.02990213,0.034887273,-0.005501651,0.011352507,0.04529458,-0.06359936,-0.011668148,0.001035651,-0.019353537,0.007889548,0.020734737,-0.058551624,0.012910917,0.022227803,0.002385181,-0.007664837,0.03090276,-0.032494854,0.038743295,-0.022790467,-0.09143784,0.034910668,-0.002202582,-0.030848762,-0.003202595,-0.029667292,0.023589326,0.012620034,0.024470165,-0.008772651,0.014967422,-0.000542853,0.011377032,-0.03390626,0.01911528,0.024227597,-0.050567094,-0.017598651,0.021208465,-0.028140303,-0.006991399,0.007419832,0.023322184,0.024910228,-0.014929002,-0.004711973,0.001451387,-0.002429941,0.006910322,-0.05582641,0.015199352,-6.28E-05,-0.03789288,0.004428028,-0.057720456,0.00928873,-0.010788976,0.011587864,-0.011730071,0.06448104,0.019573579,-0.01763689,0.03300949,-0.04269134,0.034687556,0.02338335,0.007592842,-0.03103091,0.008468943,0.004561166,-0.22852428,-0.03071112,-0.023511248,-0.075269215,0.01013277,0.006229755,-0.005427948,0.005100695,0.033797555,-0.0160164,0.005763459,0.05329245,0.034502897,0.003994069,0.0630395,-0.002697521,0.058354232,-0.008752957,0.009830513,-0.01478086,0.025223786,-6.15E-05,0.021876529,-0.021293184,-0.002520385,-0.026110582,-0.037751686,-0.012800448,-0.00699122,0.016682697,-0.012155792,0.074835695,0.048919443,0.04180882,0.000419405,0.011084721,0.04543952,0.018971851,0.034249518,0.041911967,-0.001852627,0.029922405,-0.01615961,-0.012982299,-0.087547295,-0.008034726,0.010909045,-0.043572243,0.056850113,-0.03336726,-0.06819544,0.008554522,0.055663005,0.010972327,0.03436762,0.023103295,-0.051893014,0.024038032,-0.019459574,0.01464102,0.03984611,0.006661254,-0.06431537,-0.003206598,-0.044118933,0.021405816,-0.013253522,-0.018463502,-0.011284648,0.000223634,-0.032479502,-0.026582016,0.032179017,-0.10391027,-0.008700433,-0.028329909,-0.009400122,0.007613189,-0.042827014,0.10300335,0.006164918,-0.001018974,-0.002106513,0.017753959,-0.019853076,0.077819504,-0.016287778,0.057125263,-0.07236381,0.012289988,-0.026208244,-0.07289199,-0.008349731,-0.050432708,-0.002551298,0.002970995,0.016888723,0.00557664,-0.048446443,0.003499891,0.009201779,-0.029136594,0.004928015,0.002732658,-0.03837466,0.020124456,-0.00790531,-0.03586715,0.043290656,-0.006399146,-0.008881565,0.03539494,0.006056892,-0.03405195,-0.002725362,0.049730886,0.06337032,0.002931003,0.08435393,0.0097741,0.02191505,-0.02622173,0.001658254,0.024905358,0.000662709,-0.02168969,-0.022046488,-0.028186684,0.05280242,0.009545939,-0.07854343,0.00274751,0.04979606,0.037060928,-0.017661588,-0.027679624,-0.01351896,-0.025546104,-0.078044884,0.05105437,0.026639054,0.017816689,-0.06620731,-0.0374543,-0.012209481,0.003830996,-0.000781877,-0.046298955,-0.08473697,0.040255394,-0.030626778,0.004012415,-0.043100607,-0.001629788,-0.023717793,-0.04184875,-0.01268748,-0.02304189,0.07958692,-0.32482308,-0.040222496,0.08144443,-0.000558214,-0.031670313,0.002795917,0.011114516,-0.005697679,0.015506811,-0.05604701,-0.026833212,-0.000584587,0.002321653,-0.039846297,-0.047756977,-0.017883943,-0.032086436,-0.018947162,-0.02646512,0.016617976,-0.044317257,-0.047372665,0.04043013,-0.07655168,0.006688055,-0.019831564,0.006646183,-0.044894513,-0.01687532,-0.06448987,-0.02086475,-0.02702389,-0.016432198,0.33799568,-0.006381516,-0.010822445,-0.05066087,0.014733819,-0.026608959,-0.04115474,-0.05985389,0.002843684,-0.002631339,-0.054973558,0.060577624,-0.004948897,0.004224168,0.042220388,-0.005694989,0.003667136,-0.004521931,0.005961629,-0.053349353,0.017788341,0.030594872,-0.048218064,0.001910972,0.009312288,-0.04875117,-0.053322792,-0.027508479,0.049968507,0.01881742,0.001359276,-0.020984313,-0.015743535,0.006785549,0.02290552,0.10666884,-0.03207421,0.0201525,-0.02863708,-0.019727377,-0.004369079,0.027475605,-0.044035915,-0.02934026,-0.023959491,-0.000226279,-0.012239131,-0.010837834,-0.019081866,0.008178363,-0.013046241,0.009947373,0.015862465,-0.042664677,0.029427942,0.043145124,0.040518597,0.029539473,-0.00183562,-0.017465062,-0.025323192,0.3192475,-0.007725876,-0.059204765,0.024308128,-0.006973261,0.003942792,-0.010971637,0.002156739,-0.01701468,0.045952454,0.008229203,0.008333364,-0.004850371,-0.025637956,0.003435967,-0.07832643,0.034619696,0.027066894,-0.01789797,0.020205893,-0.060367726,-0.009395204,-0.046665464,0.048375305,-0.008013966,-0.015448719,-0.03084921,-0.002952719,0.084503874,-0.010711782,0.011687283,0.029405925,-0.032181222,-0.022485461,0.021710651,-0.034801874,0.015314762,0.031931654,0.047062684,-7.58E-05,-0.068454735,-0.012327947,0.002027328,-0.047139462,-0.002057654,-0.015749635,0.04895546,-0.036426794,-0.023339098,0.011865001,0.008186807,-0.00730338,-0.016008442,0.017134482,0.001200529,-0.036253113,0.029304942,-0.008727405,-0.055806067,-0.015281523,-0.027323568,-0.07148446,-0.038448766,0.020174762,-0.06422093,0.006734968,0.015579174,-0.022293134,-1.51E-05,0.006037734,0.010030959,-0.031119699,0.00925027,0.031194214,-0.006648052,0.057628788,0.07942479,0.005886213,-0.025170851,0.025224878,-0.008891922,0.004565134,0.018033367,0.005005548,0.05155833,-0.006360757,0.015663914,0.011907573,0.016954036,-0.024884868,-0.020651538,-0.025663575,0.05322673,-0.030016692,0.012788932,0.006503661,-0.11682478,0.039412342,0.015093308,0.03429399,-0.03639003,-0.013107815,-0.24103047,0.026476275,-0.019388745,-0.04506249,0.06541854,-0.002354698,-0.041333195,0.030278979,-0.111709565,0.03194062,-0.014162359,0.061120182,-0.000936627,-0.011051743,-0.07287636,0.046451602,0.024299677,0.024931239,0.005181606,0.001014716,0.004725643,0.01496659,0.058843873,0.053592302,-0.023659015,0.024724264,-0.049257137,-0.018573008,0.02106971,0.007234831,0.024598561,-0.04144041,-0.016118705,0.0749613,-0.047470987,0.012964661,0.017444758,-0.003795752,0.021877488,1.43E-05,-0.013914836,0.037070397,0.006963674,0.002996508,0.0460042,0.044322163,-0.021781554,-0.042657718,-0.0652707,-0.006050376,-0.12052368,0.011613802,0.006871514,0.009446224,-0.012292665,-0.036106724,-0.006140291,-0.022357874,-0.048537165,0.011573819,-0.012036034,0.005954353,-0.015689798,0.032444496,0.007891183,0.0368828,-0.07073338,-0.025812574,0.011652814,0.026747474,-0.027798323,0.000508987,0.020056967,-0.002634896,-0.000277371,0.0292888,0.015508887,0.002784519,0.000850821,0.024513243,0.0370655,-0.010632834,-0.04285297,0.023365403,0.04140332,0.025169544,-0.03022309,0.017654648,0.03984473,-0.018907925,0.026201107,0.013226691,0.001594262,0.02537293,-0.024120994,-0.008685846,-0.023521014,-0.024641292,0.022247188,0.021276321,0.03168894,-0.000388981,-0.002775786,-0.031047042,-0.027737986,-0.013762213,0.004945404,-0.032270044,0.021065539,0.03586516,-0.028968452,0.04963696,0.005388924,0.006290589,-0.049439725,-0.03312154,0.024259087,-0.23370452,0.019840546,-0.006011877,0.018739644,-0.040972393,0.002090822,-0.005837101,-0.008331466,0.014433996,0.00313189,-0.044524528,0.15047117,0.004183904,0.01252408,0.01180247,0.030440366,0.03410442,0.03489341,-0.025887948,0.039144635,0.023284564,0.046618994,-0.029634664,-0.025725862,0.06680284,-0.002571161,0.030141227,-0.014012402,-0.011011398,0.030959567,0.009509808,-0.03349151,-0.025056086,0.005312129,0.024595335,0.018326174,-0.023684926,0.051565524,0.03808266,-0.012164843,-0.026946573,0.020194983,0.005324905,0.009165378,0.007037247,-0.007846559,-0.01118689,-0.00061705,0.066848606,-0.027815426,0.008971418,-0.16566786,-0.013004553,-0.00169811,0.01373997,0.023307903,0.06357245,0.012992478,-0.03514834,0.000563449,-0.014282273,-0.007486778,0.000584738,0.029863942,-0.43126926,-0.028295986,0.016066259,0.003822354,0.002040533,-0.00789426,-0.043731067,-0.056839008,-0.019279785,-0.003221394,0.025783261,0.004765376,-0.000552527,0.02307215,-0.050907075,0.04634934,0.009512777,0.014615312,0.028484982,-0.029158462,-0.008217678,-0.07140851,-0.03187048,0.000330785,0.002168888,0.010663868,-0.002412422,-0.037521053,0.022660434,-0.020635355,-0.045734078,-0.008363063,0.007540219,0.002857236,0.032357443,0.024697172,-0.004772669,0.013662787,0.006904069,0.012772493,0.041615613,0.016523326,0.01104137,0.024478426,-0.020696884,-0.01334024,-0.015840912,0.03721785,-0.032360446,-0.030729987,0.029214403,-0.013466109,0.021632066,0.005301121,0.008626641,-0.050925486,-0.019167796,0.001903039
BGL4,0.012677714,0.003625877,0.024594247,-0.01748388,-0.011995681,-0.026432496,-0.066156305,0.007932279,0.010486846,-0.014259204,0.03901042,-0.0522302,0.052016474,-3.72E-05,0.006511849,0.07330377,0.00264775,-0.003834714,-0.006503093,-0.009900689,0.017545544,0.03667849,0.52975833,0.029346734,-0.026456883,-0.024194725,-0.005211596,0.011680752,0.012930338,0.04267572,-0.031787626,0.1783032,-0.007666529,0.030926108,-0.005880531,0.056449708,-0.030908536,0.024697376,0.04635266,0.043888915,-0.0344345,-0.017841952,-0.057066895,0.06662091,-0.010252251,0.016193127,-0.015974684,-0.04038767,0.049673803,0.045823477,0.03587507,0.06445872,0.035490647,-0.03419741,-0.014519561,-0.016527355,0.009159422,-0.002517057,-0.002337526,-0.03838936,-0.063332215,0.08766464,-0.056617323,0.008072041,-0.06167935,-0.012921,0.06646139,0.019172302,0.042357888,0.015259601,0.009250391,0.021579966,-0.27915746,-0.012102078,0.06764735,0.06590698,-0.036544252,-0.017345952,-0.036954965,0.14872271,-0.03863908,0.07103735,0.023244888,-0.003012509,0.002332791,-0.021753523,-0.004959049,-0.012103028,0.018470582,-0.00686896,0.012540197,0.05068959,-0.030210715,0.059094325,0.003958339,-0.004582981,-0.011271305,0.0293157,-0.005060402,-0.001116208,-0.023434767,0.09114614,0.064881556,0.003625505,-0.020753857,-0.05443994,-0.047229763,-0.05232849,0.0875245,-0.009074116,0.00645013,-0.005650632,-0.008370695,0.042169984,0.037925445,-0.060592633,-0.036911253,-0.019363755,0.02993003,-0.013678412,0.033071857,0.007518282,0.02457909,0.044675473,-0.06312227,-0.010472067,0.042626668,0.016051004,-0.008650333,-0.018971058,0.026345827,-0.004329393,-0.008757384,-0.01646428,0.012711598,-0.023328306,-0.006146199,0.034897435,0.020563738,-0.004384476,0.03357187,-0.037767775,0.036545914,0.027486887,-0.16559744,-0.040089294,0.011833676,0.025142431,0.27864492,-0.009144818,-0.01979823,-0.048902713,-0.016242713,0.002747386,-0.048995964,-0.053768177,-0.000124538,-0.017550506,-0.005963838,0.040560246,0.017836347,-0.034857184,0.02885526,0.020816028,0.0985746,0.020027729,0.001354007,0.011626756,0.01838164,-0.011944233,0.036614068,-0.064763404,0.006743736,0.029015588,0.039209966,-0.014833754,-0.016354855,-0.039725155,0.08084573,-0.030274333,0.046432182,-0.004351704,0.035088476,-0.01260785,-0.06430027,-0.021208704,0.021477256,-0.004511088,-0.2812809,-0.041590966,0.051104788,0.03337333,0.020682255,-0.031167781,0.036475703,0.022401836,-0.012599319,0.035434622,-0.034230836,-0.048575882,-0.024785547,0.013432928,-0.033101104,0.016032634,0.006019528,0.060586818,0.009762945,0.07975299,0.046117313,0.002116401,-0.17779939,-0.002001821,-0.017130557,0.020092702,0.013348887,-0.05352534,-0.05387058,-0.011087962,0.007471792,-0.06213152,-0.01617312,-0.015583096,0.016901271,0.02867593,-0.007080233,-0.02513608,0.006895628,0.090529874,0.027346473,-0.03967222,0.04622629,-0.17123732,0.018126067,-0.003886341,-0.018532975,-0.018453287,0.014183329,0.034814924,-0.047535315,0.04819833,-0.022089683,-0.045637153,-0.012777558,0.013797254,-0.04107787,0.001158409,-0.002325031,0.004998005,-0.034273382,0.0165991,0.018631823,0.060828976,-0.012592756,0.0256935,-0.010425104,-0.033237603,0.016625635,-0.005570704,0.00280129,0.006338769,0.024207294,0.03294662,0.001947539,0.022992311,-0.06205169,0.008740843,-0.06430392,0.010633796,0.022306122,0.029036656,0.0535735,-0.016451424,-0.012432043,-0.005610164,-0.007298058,0.020592425,0.022740709,0.05911639,0.031970482,-0.012575908,-0.009090705,-0.023930848,-0.001287168,-0.003440199,0.046445157,0.015181586,0.023055954,2.50E-05,-0.020362953,0.04216459,0.00892341,-0.044110227,0.020234093,-0.02384126,0.6968576,-0.009927416,0.010880028,-0.027044466,0.024550794,0.03404558,0.016191443,0.017327795,0.009425308,0.002264296,-0.04756342,-0.021316914,0.010747219,-0.072819956,0.027385568,-0.036441755,0.015829543,0.028316032,0.002595399,-0.015074555,0.002403173,0.016170455,0.053579662,-0.006359613,-0.012568235,0.04964919,0.018187918,0.06625758,-0.063785456,0.015760293,-0.06015165,0.012947573,-0.025014628,-0.0470764,-0.012391634,0.005720339,-0.032381948,-0.012572387,0.013963059,-0.00353048,-0.022256514,0.3498944,0.028954584,0.010218614,-6.49E-05,0.003521423,-0.009973302,-0.014595455,0.020369377,-0.04765838,-0.007243564,0.069237456,0.005284915,0.05275625,0.041192073,0.042512037,0.00246285,0.036901332,-0.034802493,0.08935744,0.044046175,-0.01899334,0.35104248,-0.0342955,0.06300696,0.0105503,-0.03010031,0.034763906,-0.006165416,0.01132746,0.045601938,-0.06419209,-0.011758538,0.00079322,-0.018863903,0.007285293,0.020579847,-0.058360275,0.012592824,0.022072172,0.002280641,-0.006945103,0.030834034,-0.03273118,0.039297495,-0.02320296,-0.0916912,0.035000805,-0.001976401,-0.030858556,-0.003818523,-0.029477924,0.024154859,0.0126919,0.024507303,-0.008199449,0.015604907,-0.000383998,0.01117259,-0.03425035,0.019732863,0.0244212,-0.0509329,-0.017298888,0.02149395,-0.028276667,-0.006513487,0.007363156,0.023285327,0.02490368,-0.015157175,-0.00471502,0.001877794,-0.002332044,0.006825572,-0.055818155,0.015714053,-6.31E-05,-0.038721822,0.00419692,-0.057740744,0.0095256,-0.010917128,0.011146427,-0.011434059,0.06442557,0.019483978,-0.017516138,0.032443617,-0.04270965,0.034538798,0.02341265,0.007496613,-0.031337798,0.008091937,0.004874474,-0.2289053,-0.030741615,-0.023320224,-0.075613014,0.010325996,0.005887074,-0.005442682,0.00510446,0.033695836,-0.016130634,0.006453142,0.053373847,0.034694083,0.003993095,0.062633805,-0.002710737,0.058422633,-0.008583478,0.009353805,-0.014655788,0.024848228,-0.000329366,0.021514874,-0.020577548,-0.002640715,-0.026319167,-0.037428647,-0.012907832,-0.007016146,0.016577024,-0.011820215,0.07479838,0.0489136,0.042191412,0.000521961,0.010855003,0.045171205,0.019510314,0.033902712,0.04206795,-0.001833382,0.03003021,-0.016279811,-0.013159318,-0.08755131,-0.00851904,0.011295124,-0.043123934,0.05649223,-0.033210754,-0.0682258,0.00867568,0.055271786,0.01073652,0.03379307,0.023931334,-0.051650357,0.02388497,-0.019400284,0.014418815,0.040280037,0.006376972,-0.064661816,-0.00336368,-0.044601824,0.02128362,-0.012781501,-0.018553412,-0.010796676,0.000223582,-0.032516617,-0.02684063,0.032373972,-0.103811875,-0.008698419,-0.02800652,-0.009359689,0.007698742,-0.042857397,0.10280594,0.00627374,-0.000532842,-0.002250425,0.018067174,-0.019825067,0.07793368,-0.016553666,0.057558205,-0.07255117,0.012353195,-0.026447995,-0.073176585,-0.007966456,-0.050464302,-0.002550516,0.002958578,0.017200695,0.004912117,-0.047668166,0.003243125,0.009584266,-0.029760022,0.005220451,0.002753208,-0.038226392,0.019787781,-0.008425158,-0.036041435,0.043429274,-0.00630007,-0.008289781,0.035030186,0.00568764,-0.033998296,-0.002425011,0.04938061,0.06356523,0.002348977,0.083953604,0.009893045,0.021857763,-0.02658555,0.001647536,0.025003733,0.000607635,-0.02222171,-0.022067033,-0.028341085,0.05317518,0.009734776,-0.07881236,0.002745353,0.04911985,0.03689271,-0.017797269,-0.027371021,-0.013537097,-0.025197119,-0.078076065,0.050915517,0.026235204,0.017806176,-0.06582559,-0.037509736,-0.0122407,0.004438572,-0.000247907,-0.046120703,-0.08429665,0.040518757,-0.030887153,0.004019625,-0.04313825,-0.0015846,-0.023298746,-0.041461293,-0.013197077,-0.023133598,0.078962825,-0.32432672,-0.039974295,0.08131208,-0.00034605,-0.031407155,0.002393012,0.011218245,-0.005585833,0.015669394,-0.056130897,-0.026891159,-0.000794422,0.00253654,-0.04001299,-0.047825396,-0.017863318,-0.032273237,-0.018713286,-0.026550082,0.016806796,-0.044178467,-0.047439203,0.04001454,-0.07624232,0.006338026,-0.020049963,0.006642962,-0.04504086,-0.017066004,-0.0647699,-0.020557094,-0.026543075,-0.015974497,0.3379325,-0.006209312,-0.011005393,-0.05154253,0.014897229,-0.026231572,-0.041212592,-0.059503544,0.003136827,-0.002314054,-0.054765116,0.060518317,-0.004885802,0.004231332,0.04228614,-0.005519951,0.003852676,-0.004695988,0.005782113,-0.053319942,0.017665265,0.030858422,-0.048612706,0.001683454,0.009007105,-0.048554722,-0.0536468,-0.027516857,0.049954377,0.019021206,0.001871516,-0.020972878,-0.016259031,0.006544113,0.022957794,0.10679249,-0.031923257,0.020128984,-0.028142892,-0.020449648,-0.004718869,0.027590455,-0.044321883,-0.029528085,-0.024214162,-0.000246673,-0.012164328,-0.010589631,-0.019308584,0.008288499,-0.013072511,0.010292945,0.015977377,-0.042953033,0.029113473,0.043773603,0.039814916,0.029557344,-0.002228834,-0.018037507,-0.02508833,0.31861314,-0.00789132,-0.059504364,0.024520086,-0.006480275,0.003919919,-0.01110842,0.002576483,-0.01651782,0.046335064,0.008351131,0.008441244,-0.005050842,-0.025977038,0.00287137,-0.07850511,0.035459854,0.027558813,-0.017807202,0.019997457,-0.060571104,-0.009390453,-0.046611093,0.04852772,-0.007489552,-0.016051177,-0.030798778,-0.00275845,0.08469052,-0.010021496,0.011034756,0.02916888,-0.032432653,-0.0227906,0.021680247,-0.03539564,0.015186399,0.031582,0.046716627,0.000225315,-0.068913504,-0.012537533,0.001980287,-0.04718181,-0.002237722,-0.015288712,0.04895107,-0.0356393,-0.022690492,0.011844946,0.008091802,-0.007297431,-0.016055131,0.016810922,0.001367059,-0.035987575,0.029300204,-0.008666941,-0.0563411,-0.015086117,-0.026984576,-0.071658805,-0.03828565,0.019964527,-0.06409957,0.006397203,0.01519149,-0.022600453,-0.000346977,0.006001215,0.009310246,-0.030760715,0.008422356,0.031613626,-0.006750251,0.057218768,0.07966029,0.00534079,-0.024645016,0.02493744,-0.00869251,0.004720994,0.018576646,0.005840669,0.051916286,-0.006809512,0.015974205,0.012309294,0.01728108,-0.024939965,-0.019998271,-0.025910586,0.053001136,-0.029831221,0.01316976,0.006226355,-0.11731231,0.039276928,0.014813205,0.03402891,-0.036092445,-0.012831679,-0.24167399,0.026697969,-0.018985588,-0.045669734,0.06543156,-0.002549127,-0.041674595,0.030011915,-0.11180748,0.032028038,-0.014345928,0.061389823,-0.000777751,-0.011346208,-0.07312735,0.046399157,0.024845155,0.024802066,0.005269029,0.000134575,0.004260912,0.014336294,0.05880115,0.053736392,-0.023757312,0.025150474,-0.049216557,-0.01855092,0.02055672,0.007234745,0.02489449,-0.041618276,-0.015937416,0.075460956,-0.047706865,0.012733078,0.017300792,-0.003552115,0.022373589,-0.000283639,-0.014450434,0.036861107,0.006740091,0.002671899,0.045982726,0.04433237,-0.021988792,-0.04299525,-0.06559287,-0.006110299,-0.12025454,0.011810123,0.006745156,0.009797151,-0.012447552,-0.0359743,-0.006061452,-0.021855084,-0.048555046,0.01107992,-0.011742618,0.005685225,-0.015989596,0.032778304,0.007926333,0.03690997,-0.071102716,-0.025704721,0.012033994,0.026868252,-0.027017187,0.001006034,0.019992301,-0.003021473,2.99E-06,0.029236548,0.015655212,0.002780258,0.000853258,0.024119535,0.037039608,-0.010981612,-0.042048376,0.024041627,0.04163897,0.025378814,-0.030195652,0.017192155,0.039616,-0.018614024,0.026245147,0.013092456,0.001751918,0.025326628,-0.023902606,-0.008714648,-0.023383629,-0.02466857,0.02263426,0.021145752,0.03215274,-0.000384085,-0.002363022,-0.03104628,-0.027647365,-0.014167932,0.004434685,-0.0319838,0.020396508,0.035635762,-0.02884891,0.049692582,0.005674574,0.006292069,-0.04996657,-0.033269882,0.024284422,-0.23431468,0.019634975,-0.006016607,0.018801775,-0.041305188,0.00204325,-0.005538605,-0.008043819,0.014178107,0.003273038,-0.044472564,0.15024579,0.003886174,0.012262849,0.012180248,0.03039243,0.03402204,0.034679003,-0.026009602,0.038640574,0.022759117,0.045787867,-0.029614486,-0.025936635,0.06665392,-0.002137862,0.029902695,-0.014667012,-0.010890476,0.031194441,0.009468484,-0.033819888,-0.024996102,0.004995248,0.024867725,0.018787146,-0.02378548,0.051347587,0.038535878,-0.011926126,-0.027030313,0.020344488,0.005486027,0.00964463,0.007263576,-0.007842864,-0.011541977,-0.00087722,0.06682319,-0.027617332,0.008612985,-0.1661517,-0.012912905,-0.002042439,0.013463954,0.023185289,0.0636102,0.012849623,-0.03550044,0.000631721,-0.014291445,-0.007235294,0.000607,0.02981954,-0.43104222,-0.027958654,0.01584023,0.004600518,0.0021284,-0.008514473,-0.04350258,-0.057490733,-0.018858846,-0.003228155,0.025776241,0.004880913,-0.000702629,0.02332245,-0.050779298,0.046419617,0.00976989,0.014998917,0.028767815,-0.029067338,-0.008017289,-0.0716439,-0.0316211,0.000498735,0.002504794,0.009811016,-0.00241824,-0.03764585,0.023065336,-0.020573,-0.045315377,-0.008051047,0.00747992,0.003078488,0.032514937,0.025127862,-0.004379012,0.013574363,0.006904486,0.013053744,0.04166556,0.016670905,0.010892548,0.024757333,-0.020680083,-0.012904265,-0.015763499,0.037035882,-0.03278159,-0.030916018,0.029591434,-0.013566697,0.021750065,0.005557647,0.008801692,-0.050718397,-0.018799396,0.00208286
BGL5,0.013939156,0.003793103,0.025291199,-0.010003939,-0.012842872,-0.030851677,-0.06571191,0.025096757,0.006787031,-0.026911331,0.055771492,-0.048869,0.05435948,-0.014222712,0.001995147,0.08498815,0.006125415,0.004082423,-0.023119736,-0.010973915,0.02661691,0.037896145,0.55065787,0.021144625,-0.02147244,-0.027538303,-0.006084306,0.009581389,0.035156157,0.032732524,-0.02453369,0.17062421,-0.007673339,0.008154301,-0.005961692,0.05080458,-0.025647236,0.023243355,0.057576552,0.03596893,-0.04007211,-0.023091795,-0.03824406,0.077105515,-0.025990864,0.00827174,-0.0265072,-0.04077113,0.04525655,0.043986805,0.03885781,0.06553545,0.032453734,-0.039108645,-0.023573438,-0.020934207,-0.002685133,-0.00798079,-0.012519265,-0.024063662,-0.05827879,0.07785344,-0.052501716,0.00829431,-0.061187543,-0.019212496,0.058100283,0.01239512,0.04180289,0.02670192,0.012880352,0.015958184,-0.28311092,-0.002111123,0.07267456,0.075176224,-0.044363152,-0.012228737,-0.02382235,0.16469583,-0.024804965,0.0710432,0.012108232,-0.005141253,0.001728869,-0.02441136,-0.001145744,-0.030778237,0.01962467,0.003919836,0.012885262,0.057684034,-0.020770635,0.055524573,0.009441364,-0.020722458,-0.01160037,0.014835306,-0.022300042,-0.009251738,-0.016792422,0.088292174,0.05855914,-0.001123391,-0.045977846,-0.06363815,-0.026828699,-0.052847523,0.06240369,-0.003532898,0.006510011,-0.006561253,0.003941168,0.04577963,0.021612193,-0.05774022,-0.021249428,-0.013601423,0.027430309,-0.017860647,0.03665192,-0.002978676,0.021190748,0.033060785,-0.0654136,-0.020741269,0.06531038,0.0220802,-0.004023646,-0.008875519,0.014892357,-0.01900164,-0.007857558,-0.021162385,0.023089755,-0.018323751,-0.008869507,0.036288925,0.02947019,-0.004851052,0.03600306,-0.016140236,0.038695354,0.036972612,-0.15829735,-0.023532985,0.024597017,0.010896363,0.27169725,-0.036414865,-0.03163322,-0.04961093,-0.007616364,-0.016286206,-0.046634782,-0.047014195,-0.017028274,-0.021244572,-0.015492274,0.038028378,0.028967418,-0.014185428,0.015404758,0.027941994,0.102349445,0.008065863,0.026802378,0.011815232,0.015290524,-0.00103518,0.043219313,-0.07319531,0.003475475,0.02983114,0.040839832,-0.002676437,-0.002443423,-0.03680735,0.08352513,-0.041153613,0.029427497,-0.010243737,0.039500564,-0.016240008,-0.045928884,-0.013730363,0.028440801,0.016804514,-0.2824135,-0.047190018,0.043124825,0.038625456,0.02004552,-0.042484324,0.03335831,0.011473093,-0.020044044,0.024039956,-0.037590645,-0.050963394,-0.0303064,0.011750951,-0.03458355,0.014634235,-0.003969858,0.069493346,0.010100792,0.07286501,0.06837035,0.003811658,-0.18228123,0.006195632,-0.007131025,0.017667554,0.01014964,-0.06871555,-0.07022859,-0.00047515,0.015221919,-0.046906713,-0.031512454,-0.017416516,0.015997047,0.01795454,-0.022487083,-0.024528248,0.015830144,0.07967187,0.033116758,-0.043613996,0.028851202,-0.1617501,0.026784258,0.005626807,-0.00554422,-0.028836243,0.011088299,0.05247217,-0.051414818,0.057091337,-0.03414299,-0.037539914,-0.011901698,0.010474637,-0.056153797,-0.003165102,0.002416448,0.011420642,-0.01738047,0.01799355,0.036235332,0.066471435,-0.025816226,0.04787728,-0.007170205,-0.04213193,0.00220594,-0.023762308,0.004033217,0.003385315,0.01675976,0.019102558,-0.000821301,0.036204457,-0.064451635,0.00965644,-0.06268957,0.024153817,0.026346711,0.03763948,0.039680555,-0.012962766,-0.017544067,-0.005640883,-0.008902667,0.00754001,0.012400176,0.067498155,0.02754815,-0.007872661,-0.016742906,-0.018090717,-0.001236234,0.004060263,0.042957228,0.0276237,0.013634015,0.0263978,-0.030004185,0.03281852,0.002868358,-0.046992164,0.01331248,-0.010865065,0.68484443,-0.028010353,0.021376349,-0.038098894,0.028712388,0.016639017,0.0184966,0.007364621,0.000763147,0.003810964,-0.04573696,-0.03207917,0.008544398,-0.059931967,0.027680295,-0.028344566,0.023882478,0.034502175,0.004429964,-0.011194515,-0.018588545,0.019820562,0.052586697,0.006556181,-0.01335956,0.048767757,0.028571298,0.059166547,-0.07001353,0.012051034,-0.054675315,0.014513867,-0.023622785,-0.0536402,-0.017807163,-0.005848186,-0.023314536,-0.03143243,0.020403659,-0.016546438,-0.01871176,0.34743467,0.034069777,0.011099864,-0.000216809,0.005954521,-0.023282504,-0.017236006,0.011548526,-0.058184084,-0.003317436,0.07470224,0.001824064,0.060184423,0.0336555,0.054794405,0.009479719,0.03263601,-0.040902957,0.08886462,0.048316665,-0.013174404,0.33269644,-0.039603744,0.07455104,0.019137036,-0.032213468,0.0394474,-0.007764899,-0.002735005,0.048241455,-0.06626976,-0.012573863,0.000158901,-0.020423157,0.012590312,0.026254667,-0.066970035,0.017105892,0.008239568,-0.008313408,0.016207078,0.03484286,-0.030873919,0.048934583,-0.015716441,-0.0904596,0.0377337,-0.01077703,-0.04492455,-0.007747046,-0.032908242,0.013709459,0.002048664,0.016662298,-0.010366385,0.021792928,0.008510401,0.007210099,-0.042814497,0.013332471,0.001406539,-0.040196154,-0.024616513,0.014824026,-0.0293069,0.008397692,0.003222158,0.023735581,0.006839898,-0.023714632,-0.004746073,0.018276433,0.031820357,0.010142814,-0.053197067,0.007637815,-5.70E-05,-0.022029337,0.006132685,-0.046423543,0.004376723,-0.008091652,0.009800206,-0.018574536,0.060454436,0.024825841,-0.02115505,0.03349956,-0.04944291,0.025466325,0.019851869,0.016976299,-0.035583936,0.004967883,0.001309463,-0.22310613,-0.027959684,-0.020264402,-0.07205733,0.007218821,-0.004497283,-0.006010044,0.005018252,0.03685222,-0.021196818,-0.010074163,0.062786795,0.05351287,0.003986583,0.06732767,-0.008059054,0.060528483,-0.000104703,0.010700744,-0.006092943,0.03452952,0.013188636,0.00576675,0.004066182,-0.011376667,-0.018870894,-0.038067117,-0.012847655,-0.000444001,0.023927182,-0.003023131,0.08367671,0.04521459,0.033658728,-0.00599574,0.011569821,0.049966846,0.023623886,0.036930796,0.045450702,-0.002150544,0.030726828,-0.013900442,-0.02555207,-0.09627865,-0.007621739,0.005080877,-0.03763983,0.045184974,-0.034634512,-0.07291924,0.01920044,0.055306926,0.01758268,0.040513523,0.008632197,-0.054950632,0.03492176,-0.020885827,0.016364178,0.031194424,0.000374878,-0.054516427,-0.001617668,-0.03835614,0.019757446,-0.012857895,-0.011550082,-0.007544997,0.000227875,-0.035319045,-0.009397261,0.023236152,-0.11689106,-0.009028502,-0.005626569,-0.018575165,-9.69E-06,-0.0345046,0.11163601,0.016119901,-0.008762239,0.009173644,0.013395036,-0.022962168,0.0858979,-0.003008308,0.06339592,-0.06525763,0.024293415,-0.026536047,-0.06298843,-0.008709279,-0.054408938,-0.002629663,0.002841828,-0.002927401,0.01708268,-0.051976446,0.01307908,-0.002988356,-0.04036221,0.016282853,-0.005352626,-0.0414199,0.033177722,-0.017483652,-0.043074965,0.040871292,0.000404954,-0.006368419,0.027448429,-0.001621967,-0.025727887,-0.024302477,0.038598973,0.041524943,0.004122839,0.07071941,0.013622601,0.014683562,-0.018815383,0.00517628,0.037652515,0.012277538,-0.002787107,-0.030559756,-0.038930964,0.055755462,-0.009752614,-0.055860423,0.002962476,0.04926932,0.032324243,-0.021018561,-0.032497842,-0.007751615,-0.013049422,-0.07953853,0.051375803,0.017258208,0.03589657,-0.054220304,-0.04265726,-0.01069628,0.002065765,0.026910737,-0.048220154,-0.076959506,0.022204472,-0.02369521,-0.015452978,-0.0548108,-0.004682453,-0.015162409,-0.044672366,-0.006311589,-0.022962153,0.079089165,-0.3211966,-0.045420647,0.08186934,0.008570992,-0.053060763,0.003278169,-0.002223761,-0.012622722,0.030117799,-0.056249574,-0.00980925,0.000560002,0.005449268,-0.033910714,-0.035384443,-0.036066853,-0.034844138,-0.034931652,-0.033343878,0.024129635,-0.03404454,-0.03990474,0.035779364,-0.057833787,0.005819356,-0.012560162,0.006682369,-0.048857484,-0.010514244,-0.07476707,-0.006733431,-0.018224971,-0.016539283,0.34299996,-0.011582591,-0.017149543,-0.06348873,-0.004685809,-0.018682273,-0.042823184,-0.05924655,0.00596636,9.37E-05,-0.049829204,0.05176451,0.000274297,0.004073885,0.037201814,-0.018756295,0.015439411,-0.016107311,0.000863407,-0.04875658,0.028259689,0.021673454,-0.045640074,0.00122899,0.007065016,-0.06450494,-0.046361607,-0.04169655,0.044402547,0.028281176,-0.00338958,-0.028240409,-0.033503592,-0.001531545,0.01436442,0.11884228,-0.014881946,0.012313825,-0.014238695,-0.013519006,-0.000667927,0.018742837,-0.036789507,-0.024164474,-0.02024553,-0.013271475,-0.030785285,-0.005779358,-0.01861339,-0.000863298,-0.008399312,0.005248979,0.029665474,-0.05068554,0.019319978,0.025469521,0.03939725,0.034104485,0.010686773,-0.023216037,-0.043530464,0.31613377,0.01072566,-0.04850553,0.01601401,-0.016123205,0.008512428,-0.001292786,-0.00778889,-0.020926086,0.040597163,0.005033098,0.01216343,-0.007780918,-0.028714715,0.012559043,-0.07493271,0.051010683,0.02455527,-0.012497606,0.009037181,-0.057681672,-0.020231938,-0.041374665,0.039090715,0.00293034,-0.025242219,-0.038967885,-0.008035394,0.09982322,-0.026026461,0.016209206,0.020245356,-0.043339733,-0.021302897,0.032354623,-0.026535898,0.007665206,0.038894154,0.0561708,-0.002058006,-0.06776763,-0.019731293,-0.006949754,-0.046200655,-0.005791736,-0.021777313,0.053650696,-0.011178847,-0.028813874,0.009685465,0.00876929,-0.007604015,-0.016570238,0.027870249,-0.017924586,-0.037015416,0.03009335,0.017140316,-0.05919789,-0.02278378,-0.02278142,-0.0661131,-0.047531847,0.015793039,-0.06182097,0.008521444,0.018978234,-0.021739613,-0.004198873,-0.003725622,0.010937089,-0.045326535,0.006701369,0.03708299,-0.00720067,0.051002443,0.08932432,-0.007811808,-0.031643525,0.029526513,-0.023639591,0.004140952,0.013673197,0.00323746,0.045229334,0.002899048,0.027241997,0.023322692,0.020967752,-0.037915263,-0.018419666,-0.03206922,0.05080958,-0.040435992,0.001402365,0.000519333,-0.12571414,0.029093303,0.016555257,0.03600157,-0.039490584,0.003968556,-0.23859097,0.012020183,-0.028838577,-0.034729842,0.06062794,-0.008688701,-0.035561148,0.024567189,-0.118715964,0.026775561,-0.014113179,0.07158813,-0.003749592,-0.012628301,-0.08459841,0.039321326,0.01716224,0.035440274,-0.011792036,-0.012203591,0.002020248,0.016376896,0.05881702,0.064107694,-0.0188019,0.027830152,-0.039676365,-0.02890159,0.005758304,0.007244693,0.024247369,-0.034531597,-0.009411516,0.09115911,-0.049109794,0.014947657,0.02230466,-0.001883357,0.012649384,-0.000871879,-0.013910858,0.043219503,0.015818922,0.021387735,0.038825605,0.033027157,-0.025674386,-0.05320802,-0.0658181,-0.012466718,-0.118209295,0.03113221,-0.004709087,0.000815158,-0.021270705,-0.0182514,-0.002828004,-0.02776984,-0.039580397,0.0218785,-0.010020241,0.011552168,-0.02855278,0.043786664,-0.005498132,0.02979731,-0.06946014,-0.03436065,0.009933325,0.03588592,-0.047929272,-0.003260278,0.022626618,0.004723329,-0.01065687,0.02627192,0.023345318,0.002815031,0.000777423,0.024200726,0.03969366,-0.020920224,-0.031902887,0.014479164,0.05228691,0.034924664,-0.039797492,-0.007116165,0.044979304,-0.012629264,0.026291024,0.003452034,-0.007129636,0.027930234,-0.012180278,-0.023655042,-0.022015281,-0.006340462,0.023125304,0.037008766,0.03293944,-0.000463713,0.002664727,-0.018663438,-0.04217916,-0.018089546,-0.009220624,-0.03676224,0.001951962,0.025915358,-0.027978422,0.032885406,0.021915285,0.006290681,-0.0635352,-0.017918054,0.025283111,-0.24027205,0.028529307,-0.006137675,0.017694477,-0.055654638,0.0166116,-0.002378811,-0.006905553,0.010651464,-0.003373973,-0.035237946,0.14628692,-0.007571334,0.005255412,0.02646686,0.02007249,0.034324292,0.039379995,-0.033037163,0.04047902,0.012892398,0.05141192,-0.031224566,-0.026663462,0.07557073,0.014424313,0.0321812,-0.027391138,-0.005594799,0.031108597,0.011654021,-0.030569488,-0.026542068,0.000654716,0.024491284,0.021493467,-0.020747466,0.04242719,0.0482969,-0.025803803,-0.038294617,0.011618254,0.03112264,0.018050821,0.010598746,-0.007815201,-0.018254623,0.011378662,0.055695616,-0.011330264,0.011383191,-0.1776546,-0.010870149,0.010498833,-0.00661742,0.004843694,0.05710169,0.002759389,-0.042752475,0.006734769,-0.019691747,0.003971902,-6.12E-05,0.02966062,-0.41511443,-0.03721084,0.001749209,0.003408045,-0.011138385,-0.020341264,-0.033486895,-0.05348123,-0.029122869,-0.00320778,0.030149302,0.006133711,0.001720731,0.028574098,-0.052183505,0.040220786,0.001811206,0.017621243,0.024138812,-0.0380848,0.011312978,-0.06919236,-0.024253832,0.013154117,-0.001953433,0.02293512,-0.002420554,-0.034191266,0.042249024,-0.019135838,-0.059361808,0.006995526,0.010290633,0.010816919,0.040915783,0.02329901,-0.023975117,0.013069471,0.00694664,0.004804605,0.05541955,0.01249301,0.00518463,0.028058236,-0.025154252,-0.006144387,-0.023860067,0.03325048,-0.03719011,0.004024806,0.029838247,-0.006352088,0.019534098,-0.008681655,0.008024818,-0.048522085,-0.028316421,-0.011217824
BGL6,0.013998481,0.0035595,0.024854373,-0.009733755,-0.012743704,-0.031383622,-0.065845914,0.02476655,0.00712502,-0.026651002,0.056028485,-0.049225204,0.05408775,-0.014021623,0.001879205,0.08560517,0.005997134,0.004315763,-0.023737026,-0.010796478,0.026040144,0.037983812,0.55086064,0.021166913,-0.02168879,-0.027666647,-0.005986278,0.009678273,0.03534315,0.032990582,-0.02483656,0.17047516,-0.007671786,0.008194839,-0.005965969,0.0500664,-0.026709374,0.02324296,0.057825696,0.035441518,-0.04042685,-0.02294131,-0.038329136,0.07719158,-0.025970975,0.008540008,-0.026863063,-0.041452114,0.04495482,0.04376135,0.039541073,0.065095514,0.03276897,-0.039248094,-0.023874544,-0.021300185,-0.00285982,-0.008012692,-0.012474964,-0.024655132,-0.058958188,0.07794238,-0.052147053,0.008292051,-0.061561417,-0.01936906,0.057900902,0.012075694,0.041064434,0.026535776,0.01305841,0.016017092,-0.28308216,-0.002487661,0.073052235,0.07517818,-0.044471722,-0.012325243,-0.024149494,0.16484898,-0.025137156,0.07051661,0.011643733,-0.005309302,0.001667262,-0.024638118,-0.001096765,-0.030072082,0.019916702,0.004115532,0.012697166,0.057770316,-0.021110777,0.055942852,0.009442063,-0.020249572,-0.011455772,0.015124057,-0.022459665,-0.009138819,-0.017000293,0.08933007,0.05849764,-0.001470581,-0.045340817,-0.063888535,-0.02679267,-0.053347886,0.061957814,-0.003372346,0.006350274,-0.005882892,0.003627935,0.04607651,0.02124922,-0.057511095,-0.02197685,-0.014135094,0.027492767,-0.018168712,0.03643895,-0.0028169,0.022257814,0.032645978,-0.06538343,-0.021198733,0.06586507,0.021627652,-0.003551064,-0.008288932,0.015054353,-0.019198088,-0.008176572,-0.02158052,0.022917742,-0.01860997,-0.008364926,0.036609437,0.029194597,-0.004370662,0.03538236,-0.01642476,0.03921922,0.03677735,-0.15813003,-0.023786198,0.02488944,0.010833625,0.27186075,-0.03561754,-0.03242183,-0.048997004,-0.007151011,-0.015772581,-0.046550985,-0.04710798,-0.016792033,-0.021198496,-0.015362754,0.038528003,0.028473064,-0.014393196,0.015433029,0.027982712,0.10298018,0.008181226,0.026808165,0.011550051,0.015123475,-0.001123103,0.042932995,-0.073257826,0.003250903,0.02983197,0.040705793,-0.00261827,-0.00282277,-0.036316577,0.08336723,-0.041684557,0.030291768,-0.009823182,0.04015811,-0.015325713,-0.046047077,-0.013943639,0.028389698,0.01648624,-0.2825703,-0.047740225,0.04293473,0.039034713,0.01958244,-0.04245761,0.033869162,0.011764281,-0.019579766,0.023657573,-0.03759772,-0.0508401,-0.03063552,0.011237671,-0.034398977,0.014209679,-0.00415971,0.06911647,0.010098876,0.07298985,0.06753326,0.003686942,-0.18241686,0.005672317,-0.007241854,0.017819198,0.009809637,-0.06887431,-0.07074755,-0.000887404,0.015180822,-0.04655252,-0.03171352,-0.017829714,0.016432,0.018039478,-0.022569232,-0.025580054,0.015704654,0.07985327,0.03331417,-0.043569904,0.028703544,-0.16163298,0.026725857,0.005466032,-0.005474254,-0.028599024,0.011387938,0.052512947,-0.051526036,0.057112347,-0.034540527,-0.03716775,-0.011463493,0.010216629,-0.056038864,-0.002610451,0.002327591,0.011323624,-0.018143456,0.017719978,0.03635516,0.06632162,-0.025703648,0.047776815,-0.007125599,-0.042123128,0.00262859,-0.023692839,0.004557136,0.003044062,0.01688741,0.019228049,-0.000898914,0.036342304,-0.06427582,0.009584259,-0.062198672,0.024592632,0.026607413,0.037660778,0.039590288,-0.012704013,-0.017973071,-0.005643896,-0.008897718,0.007188936,0.012702326,0.0673469,0.0276983,-0.008004431,-0.016841734,-0.017612927,-0.001232809,0.004294613,0.04285789,0.027503321,0.013421814,0.026126541,-0.03048068,0.03277671,0.002977259,-0.045911066,0.013277452,-0.011058699,0.6842455,-0.028173167,0.021779006,-0.038097747,0.028657801,0.016980946,0.018395351,0.007464154,0.000650647,0.003638744,-0.04595043,-0.032050464,0.009048423,-0.05951489,0.028118009,-0.028664706,0.02323254,0.034379683,0.005351561,-0.010789012,-0.019078854,0.020031545,0.05250514,0.006517078,-0.013660088,0.04901234,0.02812853,0.058915958,-0.07016645,0.012104203,-0.05503746,0.014664603,-0.023410521,-0.053943247,-0.01816401,-0.00598245,-0.023003144,-0.031377207,0.020297414,-0.016422952,-0.018733816,0.3479573,0.034233738,0.010940435,-0.000212888,0.006365228,-0.022825295,-0.016858045,0.011871328,-0.058735497,-0.003286946,0.07416437,0.001985314,0.06022883,0.033991158,0.0548284,0.009916826,0.032549374,-0.04091276,0.08873408,0.048115086,-0.013525915,0.33229277,-0.039543636,0.07485066,0.018748907,-0.032365937,0.039832987,-0.007744211,-0.002835243,0.04778204,-0.06618076,-0.012725652,0.000223227,-0.01970437,0.01208876,0.026203401,-0.06752869,0.016849475,0.007893562,-0.007833276,0.016278103,0.034563065,-0.03077702,0.048977934,-0.015958123,-0.09080283,0.038005937,-0.010945288,-0.045144316,-0.007714244,-0.033074375,0.013846616,0.002199734,0.016736576,-0.009993563,0.0217266,0.008677243,0.007350796,-0.042642012,0.013778864,0.00171584,-0.040458895,-0.024173006,0.014822348,-0.029607352,0.008312332,0.00309161,0.023721084,0.007078991,-0.023873892,-0.004748723,0.01851948,0.031164058,0.010907417,-0.05304893,0.008438101,-5.74E-05,-0.022889366,0.005464975,-0.046297956,0.004095457,-0.007927645,0.010300835,-0.018371265,0.06002017,0.024612222,-0.020783013,0.03337439,-0.049973585,0.025113227,0.02011466,0.016567407,-0.035233576,0.004716395,0.00084706,-0.22362114,-0.028316561,-0.019883547,-0.072317734,0.007447566,-0.004835818,-0.005877904,0.005012821,0.036720842,-0.02093384,-0.009475228,0.06265397,0.05279486,0.00398887,0.06752452,-0.007579816,0.06026573,-0.00037924,0.01058875,-0.005961919,0.034200054,0.012851884,0.005890829,0.004513004,-0.011065847,-0.019230587,-0.038477626,-0.013306111,-0.000515926,0.023900729,-0.002863702,0.0842707,0.044765186,0.033738315,-0.005938846,0.011189228,0.049602006,0.023464361,0.036805432,0.04562003,-0.002149993,0.030825667,-0.013347489,-0.025501756,-0.0963976,-0.007209169,0.004886309,-0.03687636,0.045085274,-0.034192976,-0.07327952,0.019548865,0.055114627,0.018070556,0.04016809,0.008476376,-0.055173587,0.034625463,-0.02142262,0.01647986,0.031677984,0.000661458,-0.055323068,-0.001887956,-0.038559817,0.019693224,-0.01241668,-0.011379916,-0.007153133,0.000228351,-0.03509888,-0.009412046,0.022686929,-0.11685503,-0.009028077,-0.006162962,-0.018555965,0.000362029,-0.034680516,0.111604035,0.015923241,-0.008634663,0.009425257,0.012856047,-0.022979662,0.086479306,-0.002721604,0.063157186,-0.06604317,0.023985907,-0.027048158,-0.063434295,-0.008725484,-0.054191772,-0.002628944,0.002837638,-0.002539438,0.016704282,-0.05169595,0.012529802,-0.00283423,-0.04013653,0.015912605,-0.005049706,-0.040626146,0.033489466,-0.017760096,-0.042727545,0.041206554,0.000824178,-0.005830341,0.027500147,-0.001805357,-0.025994759,-0.024089493,0.038599,0.041903533,0.003640593,0.071335234,0.013269562,0.014818569,-0.018653836,0.005750887,0.03742201,0.011999195,-0.002637675,-0.029977545,-0.038789853,0.055679936,-0.010089267,-0.056147687,0.002961671,0.04945627,0.0323455,-0.020824669,-0.032618985,-0.007469804,-0.012991261,-0.07994514,0.05100105,0.017888367,0.03591404,-0.053696875,-0.0423763,-0.01087653,0.002020891,0.026156262,-0.048218597,-0.07640241,0.022158394,-0.023693303,-0.015628748,-0.055153463,-0.00478515,-0.015495201,-0.045156494,-0.006564615,-0.022891454,0.07982751,-0.32114175,-0.045317825,0.08182561,0.008692058,-0.053387698,0.003522732,-0.002277511,-0.012370928,0.030231172,-0.056737438,-0.010211738,0.000594036,0.005683956,-0.034385584,-0.03562157,-0.036274947,-0.035238948,-0.034848675,-0.03340798,0.023979077,-0.034062248,-0.04016832,0.03541559,-0.05825805,0.006220857,-0.012457497,0.006682954,-0.049364395,-0.010247375,-0.07446316,-0.006628639,-0.018384872,-0.016270805,0.34331816,-0.011604558,-0.017076578,-0.06306105,-0.004546511,-0.018262556,-0.04273075,-0.059445407,0.005533156,0.000214752,-0.04995016,0.05238147,0.000663053,0.004080033,0.037741017,-0.018600056,0.015550662,-0.01589579,0.000929972,-0.04856374,0.028130567,0.02247991,-0.045713086,0.001191973,0.007239302,-0.064884946,-0.046111673,-0.041040137,0.0444336,0.028341068,-0.00342074,-0.02853051,-0.033814378,-0.001341298,0.014204695,0.118610874,-0.015237791,0.012130345,-0.014256578,-0.013728727,-0.000966728,0.01898361,-0.0372871,-0.024497034,-0.02016537,-0.012890358,-0.031016957,-0.006127856,-0.018710995,-0.000343462,-0.008703306,0.005393873,0.029762305,-0.050975107,0.019468542,0.025864135,0.03878543,0.03411046,0.010703529,-0.02388402,-0.04344036,0.31555462,0.010729264,-0.048961703,0.015866715,-0.016519558,0.008624773,-0.001390476,-0.007195501,-0.021333648,0.040007405,0.005597965,0.012493298,-0.008019129,-0.029223561,0.012177647,-0.07507762,0.05114187,0.024369,-0.012534516,0.00944681,-0.05715048,-0.020323474,-0.041488085,0.039874602,0.002829849,-0.025339967,-0.03846074,-0.007552198,0.09968431,-0.02627505,0.015939994,0.020728149,-0.04355422,-0.022097647,0.032283716,-0.027159017,0.007931116,0.038932785,0.0565776,-0.001859874,-0.068437636,-0.019651351,-0.007165956,-0.04619544,-0.004814564,-0.021729516,0.053992122,-0.010916591,-0.028457882,0.010078843,0.008588801,-0.007600164,-0.016782368,0.027329214,-0.01792011,-0.03685646,0.02999638,0.017136788,-0.05911351,-0.022671072,-0.02284323,-0.06647051,-0.047212217,0.015917096,-0.061452396,0.00897581,0.019262677,-0.021900123,-0.004549535,-0.003810584,0.011399249,-0.044966858,0.006079214,0.037227374,-0.007422637,0.050895695,0.08959534,-0.008098577,-0.03160665,0.029228093,-0.023969946,0.004290894,0.014034377,0.003483089,0.045559477,0.003125468,0.027117496,0.023171507,0.02053539,-0.037946373,-0.018158302,-0.03213194,0.050864507,-0.039904553,0.002007897,0.000403584,-0.1255907,0.029606476,0.016876038,0.036075797,-0.039665505,0.004117079,-0.23975055,0.011762908,-0.029030493,-0.03488969,0.06080635,-0.008614347,-0.035770323,0.02438344,-0.11869306,0.025874965,-0.014672992,0.07177894,-0.003698084,-0.013452382,-0.084259905,0.039423462,0.018168341,0.035111427,-0.01169203,-0.012255682,0.001897185,0.016185788,0.058478434,0.064007476,-0.019008594,0.02783075,-0.039853036,-0.028280742,0.005883216,0.00724552,0.024327347,-0.034299884,-0.009629158,0.09085993,-0.048880395,0.014866364,0.021728074,-0.001573387,0.013231111,-0.000725902,-0.014397369,0.04352425,0.015684286,0.020771232,0.038813744,0.032860402,-0.02645006,-0.05338517,-0.06636271,-0.012267994,-0.11822336,0.031186536,-0.004454467,0.000767948,-0.020557586,-0.018584918,-0.002514638,-0.027541213,-0.03938508,0.022007314,-0.009565234,0.011451601,-0.028579518,0.0442127,-0.005548392,0.029699968,-0.06920185,-0.034075126,0.010379735,0.035933513,-0.04732783,-0.003172836,0.022339135,0.004031671,-0.010544196,0.026265815,0.023953453,0.002815613,0.000779975,0.02406319,0.040046208,-0.02157626,-0.03172188,0.014123397,0.052062865,0.03466301,-0.039957058,-0.00683486,0.044621147,-0.012340599,0.026240692,0.003126075,-0.007181657,0.028295701,-0.01221686,-0.023951396,-0.022503726,-0.006055989,0.023258515,0.03700453,0.032626845,-0.000464183,0.002458305,-0.018764254,-0.041873697,-0.01845368,-0.009124408,-0.037201364,0.002033513,0.025819695,-0.02799719,0.033062574,0.021189366,0.006293492,-0.0634441,-0.018544227,0.025851771,-0.239672,0.027894486,-0.006149569,0.017647645,-0.055695016,0.016749144,-0.001467893,-0.006700514,0.010779416,-0.002682756,-0.03526676,0.14612624,-0.007845355,0.005157596,0.026833484,0.019975413,0.03440096,0.039068278,-0.0325032,0.04043964,0.012794339,0.05136559,-0.031326044,-0.026615925,0.07542799,0.014642678,0.03251845,-0.027231667,-0.005697084,0.03159858,0.011977283,-0.0301244,-0.02567338,0.000526574,0.024346408,0.021310614,-0.020962622,0.04172637,0.048434936,-0.025942633,-0.037990298,0.011771868,0.031285755,0.018271873,0.010392225,-0.007814983,-0.01875844,0.011563303,0.05514745,-0.011341422,0.010608196,-0.17784896,-0.010469564,0.010297068,-0.00651764,0.004965481,0.057589494,0.002884764,-0.043389022,0.006799883,-0.020076443,0.003484421,-0.000366278,0.029440658,-0.4144631,-0.036914323,0.001743928,0.003930842,-0.011189718,-0.020574966,-0.032818846,-0.05337768,-0.029320057,-0.003207956,0.029690892,0.006163103,0.00150214,0.029259432,-0.052124795,0.04029018,0.001846675,0.017662156,0.024850074,-0.038052257,0.011381341,-0.06933484,-0.024186203,0.012924111,-0.001679671,0.02265217,-0.002416822,-0.03450283,0.04251199,-0.019194975,-0.059060164,0.006665134,0.010197988,0.010343493,0.040856086,0.022968564,-0.023678655,0.01314931,0.006950114,0.00414047,0.055901263,0.012668904,0.005586158,0.028088223,-0.02568313,-0.005736359,-0.023410471,0.033170577,-0.037302658,0.00441348,0.030110529,-0.006108303,0.019222397,-0.008316994,0.007907371,-0.048848163,-0.028417535,-0.011547498
BGL7,0.013874559,0.004081436,0.025053978,-0.010043242,-0.012523976,-0.030718522,-0.06591913,0.025201134,0.006671608,-0.02708341,0.05587072,-0.04848318,0.05376124,-0.014775459,0.002119725,0.08529313,0.006081168,0.004082097,-0.02342076,-0.011240202,0.027101897,0.037714846,0.5510947,0.020801896,-0.021577246,-0.027260775,-0.006217966,0.009616946,0.03555402,0.03289593,-0.024909293,0.1707773,-0.007671719,0.00794035,-0.005960085,0.050701786,-0.025412336,0.023612082,0.05781556,0.0357597,-0.04044832,-0.023007033,-0.03856285,0.076863386,-0.026231375,0.008245413,-0.026539555,-0.040697612,0.045820817,0.044289045,0.03852098,0.06533333,0.032418773,-0.039146572,-0.023833657,-0.020915087,-0.002755131,-0.008077485,-0.012940934,-0.023584943,-0.05800893,0.07747171,-0.051731598,0.008291449,-0.060656793,-0.019493857,0.057928372,0.012707094,0.042403866,0.027054397,0.013150728,0.016024273,-0.28316087,-0.00186751,0.07272225,0.0751511,-0.044440456,-0.011995906,-0.0242144,0.16459005,-0.024400728,0.07141195,0.012016427,-0.005384111,0.00214321,-0.024639921,-0.001018837,-0.030482387,0.01991934,0.003294505,0.012730821,0.057670236,-0.020782534,0.055827674,0.00974471,-0.020597722,-0.011139616,0.014977431,-0.02281745,-0.009285114,-0.016450249,0.088114284,0.058553346,-0.001253087,-0.04596877,-0.06417147,-0.027004514,-0.052885495,0.06258972,-0.003509694,0.006388642,-0.006466488,0.003384575,0.046527095,0.021595089,-0.057583842,-0.021454977,-0.013740145,0.02746452,-0.01855099,0.036820516,-0.002648355,0.021600131,0.03347567,-0.065425396,-0.021040408,0.06553807,0.022288177,-0.003592077,-0.009349501,0.014926769,-0.018735018,-0.008110083,-0.021332739,0.023024356,-0.018260865,-0.008778244,0.036756836,0.029081263,-0.004487176,0.036105566,-0.016031427,0.03882404,0.037659347,-0.15840816,-0.02340755,0.024857983,0.011267028,0.27166694,-0.03578579,-0.031697072,-0.049111955,-0.00732199,-0.016059535,-0.047060575,-0.047440678,-0.017486475,-0.02114113,-0.014813458,0.03743397,0.02910233,-0.014517315,0.015619181,0.02804542,0.102401465,0.008136588,0.027134994,0.011804724,0.015258215,-0.001580654,0.04377199,-0.073071904,0.003150957,0.029931834,0.040326405,-0.002709546,-0.002478899,-0.036976937,0.083901115,-0.04130678,0.029677415,-0.010310951,0.03917835,-0.015791815,-0.04561695,-0.013688166,0.028930802,0.017049443,-0.28257307,-0.04718132,0.042811267,0.03864731,0.020282265,-0.042616937,0.033048622,0.011604844,-0.02023933,0.023876417,-0.037561968,-0.050981592,-0.030823495,0.012085564,-0.034633625,0.01467659,-0.004148422,0.06895998,0.01010992,0.07281568,0.06876336,0.003951354,-0.18244779,0.006417058,-0.007001026,0.017709643,0.009917723,-0.06851996,-0.070339665,-0.000157264,0.014771645,-0.04632577,-0.031296477,-0.01767906,0.015923308,0.017780798,-0.022291584,-0.024718875,0.016171152,0.079743266,0.032963295,-0.043662466,0.028884655,-0.16170818,0.026448803,0.006083823,-0.005225218,-0.029299071,0.010705538,0.05276385,-0.051690154,0.057064522,-0.03468932,-0.037959136,-0.011398548,0.010166734,-0.05586825,-0.003095253,0.002353167,0.011752855,-0.018000493,0.018129312,0.035621125,0.06665963,-0.026028289,0.047662027,-0.007242275,-0.0424494,0.00162657,-0.023633236,0.003940397,0.003318658,0.017109137,0.019168613,-0.000410977,0.03640208,-0.06490654,0.009020898,-0.06295857,0.024676505,0.026351957,0.037549872,0.03990619,-0.013150035,-0.017523622,-0.005638795,-0.008851051,0.007117467,0.012768975,0.067312665,0.027847253,-0.008082852,-0.016508168,-0.017728765,-0.001229293,0.003969444,0.043441072,0.027159434,0.013765197,0.02569103,-0.030894957,0.032489747,0.002846545,-0.047206547,0.013807488,-0.011042189,0.6848797,-0.02784279,0.021894451,-0.038265686,0.028537922,0.016623572,0.018637165,0.007452093,0.0014349,0.003606408,-0.045699105,-0.0316331,0.008757795,-0.06008026,0.027394598,-0.028339008,0.024206856,0.03430084,0.004351662,-0.011025733,-0.019042678,0.019525662,0.052525755,0.006176313,-0.013457684,0.04901785,0.028423404,0.05885643,-0.0700759,0.011899807,-0.05486796,0.014663744,-0.023841199,-0.053555906,-0.01773441,-0.005621561,-0.023477275,-0.03147088,0.019764211,-0.016714154,-0.018599704,0.3474509,0.034237552,0.010740516,-0.000220992,0.005836043,-0.023285111,-0.017016863,0.012012334,-0.057799477,-0.00403884,0.074764244,0.001717596,0.060157258,0.03391882,0.05485758,0.009752202,0.0324235,-0.041220173,0.08874357,0.048375864,-0.013115861,0.3324297,-0.03974887,0.07405573,0.01894944,-0.032356292,0.03936125,-0.007314298,-0.002376073,0.048363067,-0.06634991,-0.012786554,0.000163876,-0.01992198,0.012490825,0.026699154,-0.06687547,0.016484348,0.008556789,-0.007911166,0.015919497,0.035596885,-0.031240454,0.049608435,-0.015491505,-0.09036587,0.03847589,-0.011047201,-0.045372378,-0.007847004,-0.032584254,0.013603212,0.00196906,0.016531816,-0.009845343,0.021501241,0.008535611,0.007008679,-0.04268067,0.01383726,0.00084506,-0.039976783,-0.024505416,0.015016886,-0.029266521,0.008503249,0.003389557,0.023750704,0.006926166,-0.02405782,-0.004746112,0.0181929,0.031746384,0.01032364,-0.053258475,0.008027096,-5.70E-05,-0.022156464,0.006314367,-0.04686404,0.003915771,-0.008028683,0.009664235,-0.018720206,0.05994878,0.024561375,-0.02074423,0.033417143,-0.049255855,0.026164882,0.01982202,0.017457316,-0.035298314,0.005104781,0.00102174,-0.22303376,-0.02779417,-0.020175036,-0.07195506,0.007425085,-0.004383155,-0.005929149,0.00501611,0.036687367,-0.021613516,-0.010099283,0.062810384,0.05358744,0.003984451,0.06687347,-0.007940603,0.060487743,0.000382087,0.010529787,-0.006299287,0.034541983,0.012712804,0.005962095,0.004411075,-0.011078027,-0.018686427,-0.038421433,-0.01327498,-0.000622716,0.023802826,-0.003551823,0.084370315,0.04501724,0.033653755,-0.005953651,0.011391684,0.05025014,0.023653565,0.036806636,0.04579414,-0.002162097,0.031075247,-0.013705408,-0.025681185,-0.09630059,-0.007562232,0.004885288,-0.03780877,0.04565271,-0.034713186,-0.07317838,0.019591045,0.05567951,0.017840946,0.03999497,0.008671183,-0.055285357,0.034933966,-0.02139485,0.016709346,0.031037314,1.69E-05,-0.05501732,-0.001562979,-0.037765633,0.019582238,-0.012821116,-0.011323254,-0.007787956,0.000228305,-0.035370022,-0.009355327,0.023004679,-0.117542215,-0.009029359,-0.005323947,-0.018752692,5.66E-08,-0.03393696,0.111987874,0.015631719,-0.008796811,0.009322365,0.012950271,-0.023122558,0.08624988,-0.00290742,0.0632863,-0.06536691,0.02440013,-0.026764998,-0.06289952,-0.008855547,-0.054080714,-0.002630385,0.00283924,-0.002909425,0.017516147,-0.05218404,0.013829632,-0.003224474,-0.04008571,0.01644479,-0.005419296,-0.041508265,0.03347569,-0.017135942,-0.042934567,0.04079166,0.001053875,-0.00705121,0.027637841,-0.002107324,-0.025589373,-0.02473045,0.038389668,0.04221236,0.00430633,0.0701935,0.013570389,0.014568771,-0.019151611,0.005057707,0.03792692,0.011839552,-0.00353024,-0.0303038,-0.038980413,0.056283362,-0.009716066,-0.055869285,0.002960063,0.048705194,0.03243482,-0.020724913,-0.032706797,-0.007818753,-0.0132078,-0.07962444,0.0513942,0.016986016,0.036022265,-0.05399745,-0.042551976,-0.010418175,0.002254413,0.026785297,-0.04756084,-0.07710419,0.022567522,-0.02349121,-0.015475201,-0.054966576,-0.004391836,-0.014899394,-0.04464847,-0.006633855,-0.022926243,0.07902811,-0.3211615,-0.045158803,0.08182481,0.008834246,-0.053453572,0.003501811,-0.002834079,-0.012710204,0.030489862,-0.056230936,-0.01005436,0.000887064,0.005689348,-0.03411137,-0.03568562,-0.036203835,-0.034780733,-0.035296988,-0.03367407,0.024279503,-0.034302462,-0.04017983,0.035615735,-0.057951186,0.006021347,-0.012625122,0.006681531,-0.04922969,-0.010395632,-0.07488586,-0.006556365,-0.017784895,-0.016772857,0.34315434,-0.011470141,-0.017114049,-0.064019606,-0.004907955,-0.01874771,-0.04278496,-0.05936703,0.006018376,-0.000105182,-0.04968463,0.05174449,2.62E-05,0.004082325,0.03717135,-0.018869076,0.015274778,-0.016139897,0.000855145,-0.048964124,0.028651493,0.02189158,-0.04593612,0.001051443,0.006985168,-0.0646737,-0.046468854,-0.041705754,0.04426266,0.028332267,-0.003731191,-0.028442755,-0.033931702,-0.001598392,0.014395841,0.11865097,-0.014748452,0.012382489,-0.014263268,-0.013382234,-0.000487803,0.01884669,-0.036522634,-0.024255127,-0.02037076,-0.013177063,-0.030423392,-0.005870984,-0.018139912,-0.00063439,-0.008190043,0.005048023,0.029437283,-0.0506446,0.019475162,0.025733516,0.03899566,0.03420819,0.010720675,-0.023310129,-0.04374432,0.3162197,0.011268397,-0.048737198,0.016290361,-0.016400736,0.00846274,-0.001339599,-0.007634389,-0.021375485,0.040464096,0.004835762,0.012031412,-0.008115164,-0.028411156,0.012500817,-0.07489002,0.050950494,0.024349222,-0.013012652,0.009251265,-0.058122072,-0.02087774,-0.04200092,0.039342105,0.003055674,-0.025673384,-0.038402114,-0.007431021,0.10047768,-0.026178444,0.01632211,0.020361813,-0.043252252,-0.021213477,0.032625884,-0.026523642,0.008135661,0.039014358,0.055885863,-0.002434592,-0.068169706,-0.019291265,-0.006892164,-0.04635212,-0.005508258,-0.021986157,0.053322323,-0.011044527,-0.0286869,0.009652359,0.009052191,-0.00760891,-0.01597421,0.027680745,-0.018173302,-0.03733222,0.030199677,0.017196331,-0.05922857,-0.022618879,-0.02334723,-0.066407576,-0.047743104,0.01594068,-0.06150711,0.008676684,0.018782511,-0.022349978,-0.004377632,-0.00375094,0.010985202,-0.04502978,0.006682247,0.03691629,-0.007012219,0.050317,0.0898133,-0.007851286,-0.031725287,0.029371925,-0.024067705,0.003277515,0.014532808,0.002943184,0.04523166,0.00294755,0.026742077,0.023324145,0.020694954,-0.038093757,-0.018099312,-0.032120503,0.050526243,-0.040687613,0.001546248,0.000125411,-0.12568188,0.028946841,0.016600223,0.036031317,-0.039501257,0.003644052,-0.23864783,0.011968182,-0.028688494,-0.035069145,0.060710717,-0.008730135,-0.035572194,0.024111904,-0.11843241,0.026332542,-0.014126715,0.07186569,-0.003095054,-0.012814801,-0.08465798,0.03922394,0.01718593,0.03556999,-0.011870239,-0.011937307,0.001897792,0.016609259,0.05866713,0.06410186,-0.019468604,0.027775325,-0.03992434,-0.02866313,0.005333938,0.00724114,0.023853147,-0.034765247,-0.009221191,0.09100411,-0.04871392,0.015023652,0.02208211,-0.002062177,0.0123931,-0.000747093,-0.014087925,0.042793546,0.015561178,0.02112439,0.039362233,0.033452224,-0.025990414,-0.053416062,-0.06618022,-0.012416715,-0.1180353,0.03138972,-0.004680287,0.000796084,-0.021244379,-0.018001966,-0.002702633,-0.027861351,-0.039612353,0.022202482,-0.010249008,0.011787294,-0.0284645,0.04382486,-0.005307481,0.030230224,-0.06928781,-0.034645315,0.009965454,0.035986252,-0.04808451,-0.003703441,0.022676988,0.00507826,-0.010857858,0.025988216,0.023341248,0.002819485,0.000778178,0.024007805,0.039576758,-0.020961605,-0.03236579,0.01415419,0.052284542,0.034842603,-0.039222375,-0.007521684,0.044921283,-0.012599885,0.02626298,0.003886876,-0.007249435,0.027793165,-0.011966636,-0.023690619,-0.02215179,-0.006290148,0.023227654,0.037402436,0.032375116,-0.00046704,0.003160762,-0.018971337,-0.041559134,-0.01832369,-0.009758019,-0.03728718,0.001895478,0.025439397,-0.028137237,0.03327918,0.02214961,0.006288836,-0.06299178,-0.017493347,0.024701158,-0.23994721,0.028445877,-0.006143421,0.017204631,-0.055392843,0.016812881,-0.003050398,-0.006261787,0.010862811,-0.003110577,-0.035881918,0.14611349,-0.007463219,0.00570506,0.027082926,0.020188019,0.03399167,0.039629556,-0.03303493,0.04092508,0.012562767,0.052133437,-0.030632088,-0.026810227,0.075705685,0.014064952,0.0325336,-0.027962377,-0.005913678,0.03127203,0.011829522,-0.030114194,-0.026559763,0.000515992,0.024339918,0.021664582,-0.020875674,0.04224711,0.04784496,-0.025761986,-0.038060583,0.011072903,0.031269327,0.018663425,0.010757252,-0.007813533,-0.017645676,0.010918887,0.05569835,-0.010890131,0.011087002,-0.17754917,-0.010832156,0.010766178,-0.006853849,0.004329331,0.05694872,0.003032073,-0.042713974,0.007316331,-0.019745925,0.003937954,-0.000192273,0.03005701,-0.41557446,-0.0371247,0.001373168,0.003060576,-0.010811816,-0.02018039,-0.03279467,-0.053760648,-0.029287351,-0.003206377,0.030611586,0.005626552,0.001782242,0.028447298,-0.05210974,0.04024258,0.002182162,0.017908322,0.02477849,-0.038171723,0.011147305,-0.069033384,-0.023577267,0.013255965,-0.002039813,0.022930024,-0.002413626,-0.034251902,0.04182769,-0.0195101,-0.059270132,0.007093342,0.009542307,0.010924469,0.041507486,0.023036966,-0.02440753,0.013373502,0.00694408,0.004931186,0.055502377,0.012681409,0.005074679,0.028490026,-0.025324056,-0.0061111,-0.024043586,0.03375649,-0.037332255,0.004031244,0.029650595,-0.006374602,0.019479888,-0.008833263,0.007770356,-0.048154175,-0.028347885,-0.011528549
